/*
 * Copyright (c) 2026 EdgeImpulse Inc.
 *
 * Generated by Edge Impulse and licensed under the applicable Edge Impulse
 * Terms of Service. Community and Professional Terms of Service
 * (https://edgeimpulse.com/legal/terms-of-service) or Enterprise Terms of
 * Service (https://edgeimpulse.com/legal/enterprise-terms-of-service),
 * according to your product plan subscription (the “License”).
 *
 * This software, documentation and other associated files (collectively referred
 * to as the “Software”) is a single SDK variation generated by the Edge Impulse
 * platform and requires an active paid Edge Impulse subscription to use this
 * Software for any purpose.
 *
 * You may NOT use this Software unless you have an active Edge Impulse subscription
 * that meets the eligibility requirements for the applicable License, subject to
 * your full and continued compliance with the terms and conditions of the License,
 * including without limitation any usage restrictions under the applicable License.
 *
 * If you do not have an active Edge Impulse product plan subscription, or if use
 * of this Software exceeds the usage limitations of your Edge Impulse product plan
 * subscription, you are not permitted to use this Software and must immediately
 * delete and erase all copies of this Software within your control or possession.
 * Edge Impulse reserves all rights and remedies available to enforce its rights.
 *
 * Unless required by applicable law or agreed to in writing, the Software is
 * distributed on an "AS IS" BASIS, WITHOUT WARRANTIES OR CONDITIONS OF ANY KIND,
 * either express or implied. See the License for the specific language governing
 * permissions, disclaimers and limitations under the License.
 */
// Generated on: 02.03.2026 16:15:14

#include <stdio.h>
#include <stdlib.h>
#include "edge-impulse-sdk/tensorflow/lite/c/builtin_op_data.h"
#include "edge-impulse-sdk/tensorflow/lite/c/common.h"
#include "edge-impulse-sdk/tensorflow/lite/micro/micro_mutable_op_resolver.h"
#include "edge-impulse-sdk/porting/ei_classifier_porting.h"

#if EI_CLASSIFIER_PRINT_STATE
#if defined(__cplusplus) && EI_C_LINKAGE == 1
extern "C" {
    extern void ei_printf(const char *format, ...);
}
#else
extern void ei_printf(const char *format, ...);
#endif
#endif

#define STRINGIZE(x) #x
#define STRINGIZE_VALUE_OF(x) STRINGIZE(x)

#if defined (__GNUC__)  /* GNU compiler */
#define ALIGN(X) __attribute__((aligned(X)))
#define DEFINE_SECTION(x) __attribute__((section(x)))
#elif defined (_MSC_VER)
#define ALIGN(X) __declspec(align(X))
#elif defined (__TASKING__) /* TASKING Compiler */
#define ALIGN(X) __align(X)
#define DEFINE_SECTION(x) __attribute__((section(x)))
#elif defined (__ARMCC_VERSION) /* Arm Compiler */
#define ALIGN(X) __ALIGNED(x)
#define DEFINE_SECTION(x) __attribute__((section(x)))
#elif defined (__ICCARM__) /* IAR Compiler */
#define ALIGN(x) __attribute__((aligned(x)))
#define DEFINE_SECTION(x) __attribute__((section(x)))
#elif defined (__clang__) /* LLVM/Clang Compiler */
#define ALIGN(X) __ALIGNED(x)
#define DEFINE_SECTION(x) __attribute__((section(x)))
#endif

#if defined(EI_MODEL_SECTION) && (defined(__GNUC__) || defined(__clang__))
#define MODEL_SECTION(X) __attribute__((section(STRINGIZE_VALUE_OF(X))))
#else
#define MODEL_SECTION(X)
#endif

#ifndef EI_MAX_SCRATCH_BUFFER_COUNT
#ifndef CONFIG_IDF_TARGET_ESP32S3
#define EI_MAX_SCRATCH_BUFFER_COUNT 8
#else
#define EI_MAX_SCRATCH_BUFFER_COUNT 16
#endif // CONFIG_IDF_TARGET_ESP32S3
#endif // EI_MAX_SCRATCH_BUFFER_COUNT

#ifndef EI_MAX_OVERFLOW_BUFFER_COUNT
#define EI_MAX_OVERFLOW_BUFFER_COUNT 10
#endif // EI_MAX_OVERFLOW_BUFFER_COUNT

using namespace tflite;
using namespace tflite::ops;
using namespace tflite::ops::micro;

namespace {

#if defined(EI_CLASSIFIER_ALLOCATION_STATIC_HIMAX) || defined(EI_CLASSIFIER_ALLOCATION_STATIC_HIMAX_GNU)
constexpr int kTensorArenaSize = 7312;
#else
constexpr int kTensorArenaSize = 6288;
#endif

#if defined(EI_CLASSIFIER_ALLOCATION_STATIC)
#if defined (EI_TENSOR_ARENA_LOCATION)
uint8_t tensor_arena[kTensorArenaSize] ALIGN(16) DEFINE_SECTION(STRINGIZE_VALUE_OF(EI_TENSOR_ARENA_LOCATION));
#else
uint8_t tensor_arena[kTensorArenaSize] ALIGN(16);
#endif
#elif defined(EI_CLASSIFIER_ALLOCATION_STATIC_HIMAX)
#pragma Bss(".tensor_arena")
uint8_t tensor_arena[kTensorArenaSize] ALIGN(16);
#pragma Bss()
#elif defined(EI_CLASSIFIER_ALLOCATION_STATIC_HIMAX_GNU)
uint8_t tensor_arena[kTensorArenaSize] ALIGN(16) __attribute__((section(".tensor_arena")));
#else
#define EI_CLASSIFIER_ALLOCATION_HEAP 1
uint8_t* tensor_arena = NULL;
#endif

static uint8_t* tensor_boundary;
static uint8_t* current_location;

template <int SZ, class T> struct TfArray {
  int sz; T elem[SZ];
};

enum used_operators_e {
  OP_RESHAPE, OP_CONV_2D, OP_MAX_POOL_2D, OP_FULLY_CONNECTED, OP_SOFTMAX,  OP_LAST
};

struct TensorInfo_t { // subset of TfLiteTensor used for initialization from constant memory
  TfLiteAllocationType allocation_type;
  TfLiteType type;
  void* data;
  TfLiteIntArray* dims;
  size_t bytes;
  TfLiteQuantization quantization;
};

typedef struct {
  TfLiteTensor tensor;
  int16_t index;
} TfLiteTensorWithIndex;

typedef struct {
  TfLiteEvalTensor tensor;
  int16_t index;
} TfLiteEvalTensorWithIndex;

TfLiteContext ctx{};
static const int MAX_TFL_TENSOR_COUNT = 4;
static TfLiteTensorWithIndex tflTensors[MAX_TFL_TENSOR_COUNT];
static const int MAX_TFL_EVAL_COUNT = 4;
static TfLiteEvalTensorWithIndex tflEvalTensors[MAX_TFL_EVAL_COUNT];
TfLiteRegistration registrations[OP_LAST];

namespace g0 {
const TfArray<2, int> tensor_dimension0 = { 2, { 1,992 } };
const TfArray<1, float> quant0_scale = { 1, { 0.0036151960957795382, } };
const TfArray<1, int> quant0_zero = { 1, { -128 } };
const TfLiteAffineQuantization quant0 = { (TfLiteFloatArray*)&quant0_scale, (TfLiteIntArray*)&quant0_zero, 0 };
const MODEL_SECTION(EI_MODEL_SECTION) ALIGN(16) int32_t tensor_data1[4] = { 1, 1, 31, 32, };
const TfArray<1, int> tensor_dimension1 = { 1, { 4 } };
const MODEL_SECTION(EI_MODEL_SECTION) ALIGN(16) int32_t tensor_data2[4] = { 1, 31, 1, 16, };
const MODEL_SECTION(EI_MODEL_SECTION) ALIGN(16) int32_t tensor_data3[4] = { 1, 1, 16, 16, };
const MODEL_SECTION(EI_MODEL_SECTION) ALIGN(16) int32_t tensor_data4[4] = { 1, 16, 1, 32, };
const MODEL_SECTION(EI_MODEL_SECTION) ALIGN(16) int32_t tensor_data5[4] = { 1, 1, 8, 32, };
const MODEL_SECTION(EI_MODEL_SECTION) ALIGN(16) int32_t tensor_data6[4] = { 1, 8, 1, 64, };
const MODEL_SECTION(EI_MODEL_SECTION) ALIGN(16) int32_t tensor_data7[4] = { 1, 1, 4, 64, };
const MODEL_SECTION(EI_MODEL_SECTION) ALIGN(16) int32_t tensor_data8[4] = { 1, 4, 1, 128, };
const MODEL_SECTION(EI_MODEL_SECTION) ALIGN(8) int32_t tensor_data9[2] = { -1, 256, };
const TfArray<1, int> tensor_dimension9 = { 1, { 2 } };
const MODEL_SECTION(EI_MODEL_SECTION) ALIGN(16) int32_t tensor_data10[5] = { 106, -83, 14, 18, -104, };
const TfArray<1, int> tensor_dimension10 = { 1, { 5 } };
const TfArray<1, float> quant10_scale = { 1, { 0.0023051241878420115, } };
const TfArray<1, int> quant10_zero = { 1, { 0 } };
const TfLiteAffineQuantization quant10 = { (TfLiteFloatArray*)&quant10_scale, (TfLiteIntArray*)&quant10_zero, 0 };
const MODEL_SECTION(EI_MODEL_SECTION) ALIGN(16) int8_t tensor_data11[5*256] = { 
  -1, 25, 3, 0, 21, -21, 11, 7, 4, 11, -19, 13, 7, -9, 4, -9, -3, 13, 2, -29, -18, -77, 2, 11, 19, 18, -7, -35, 2, 8, 9, -16, -25, -48, -59, -55, -2, 9, 0, 20, 6, 1, -13, -49, 11, 4, -28, -55, 0, -4, 17, -33, 12, 2, -37, 8, -20, 13, 6, 0, 14, 15, -7, -8, -43, 6, -49, -4, -23, 1, -44, -35, -57, -33, -2, -36, 6, 16, -66, -29, 15, -39, 0, -10, 23, -41, -19, -41, 33, -3, 9, 5, 10, -3, 5, 13, 1, -12, -1, 9, -11, 13, 10, -30, 12, 11, -14, -25, -36, -35, 5, -44, -25, -36, -43, -8, -17, -12, 22, -14, -46, 11, 36, -7, 6, -4, 6, 17, -5, 0, 10, 4, 15, 20, 12, 11, 10, -5, -24, 19, 8, -1, -9, -2, -6, 5, 16, -26, -16, -81, -22, 9, 12, 23, -34, -30, 2, -6, 20, -24, -9, -68, -20, -43, -5, 13, -1, 33, 4, 5, -9, -39, 12, -5, 23, -14, 12, 32, -2, -14, 6, 3, -43, 7, -25, 26, -7, -9, 10, 7, 4, -44, -71, -11, -47, -7, 0, 18, 14, -9, -34, -37, 5, -46, 7, -6, -54, -3, 15, -53, 6, 26, 22, -17, -33, -6, 14, -11, -10, 8, 2, -9, -5, -38, 4, -12, -27, 10, 7, -7, -52, -32, 1, 6, -3, -12, -51, -27, -46, -43, -34, 4, -28, -8, -27, -36, 5, -16, -43, 0, 10, -5, 4, 7, 0, 7, 
  -21, -14, -7, -29, -24, -33, 71, 5, 12, -18, -26, 16, -33, -4, -21, -11, -9, -5, -41, -37, -29, -3, -13, -29, 2, 35, 0, 15, -10, -50, -5, -11, 3, -20, 9, 7, -4, -20, -5, -51, 14, 1, 21, 15, -77, -39, -11, -41, 2, -15, -63, -9, -11, -9, -8, -31, 17, -54, -3, 2, 5, 4, -4, 9, 34, -24, 7, 10, -12, -31, -7, -15, 12, -1, -27, 6, -13, -58, 15, 10, 33, -6, -50, 14, -10, -1, -1, 9, -52, -40, 3, 11, 10, -23, -62, 18, -14, 4, 3, 11, 13, -23, 31, 5, -32, -49, 11, 35, 18, -1, 7, 0, -54, -31, 3, -58, 10, 8, -24, 8, -11, -6, 11, -9, -1, -28, 11, -18, -19, -32, -2, -23, -27, -12, 6, 9, -10, -55, -14, -53, -29, 17, -25, -73, 18, -64, -64, -31, -30, -47, -106, -24, -18, 3, 6, 10, 5, -53, -19, -11, 22, -10, 11, 11, 9, -27, -11, -63, -6, -16, 19, 8, -127, -43, -16, -44, -36, -23, 4, -43, -38, -6, 28, -37, 14, -81, 0, 6, 4, -13, -4, 30, 18, -32, 10, 2, 11, -27, 13, -54, 3, -7, -34, 11, -5, -32, 11, 10, 13, -2, -52, 16, -22, -5, -15, 22, 7, -28, 4, 5, 15, -28, -62, -55, -19, -13, 11, -49, 8, -3, 3, -1, -5, -56, 10, 5, 17, -3, 22, 9, -96, -27, 15, -29, 10, 12, -29, 9, -5, 2, -9, 0, 4, -35, -12, -11, 
  -22, -52, -37, -29, 2, -4, -6, -48, -3, 23, -11, 3, -74, -40, 36, -4, 22, 13, 4, 4, -9, 12, 4, -14, -57, -11, -66, 13, -1, 2, -26, 5, 16, 8, 4, 12, -15, -59, -23, -18, -6, -40, -31, 15, 10, -41, 13, 14, -24, -20, 2, 4, -22, -4, -74, 8, 10, -4, 2, -3, -26, -2, -5, -37, -80, -35, 15, -40, 10, -9, 2, 6, -36, 6, 1, -47, -39, -7, 11, -16, -28, 10, -42, 6, -7, -3, 13, -27, -9, 2, 9, 11, -10, 18, -44, 4, -40, -19, 4, 7, -36, -15, -15, -69, -8, 8, 4, -40, -39, 22, -6, 17, -13, 1, 2, -14, -47, -7, -18, 15, -12, -46, 9, -12, -72, -13, -59, -66, -25, -24, -15, -34, 14, -15, -4, -47, -4, -7, -23, -8, -69, -44, 29, -5, 16, 7, 13, 8, -2, 8, 9, -32, -24, -29, -38, 18, -2, 4, -55, 17, 0, 2, 17, 7, 1, -57, 10, -49, 2, -35, -32, 17, 13, -32, -5, 13, -72, -24, 5, 6, -25, 8, -52, 5, -1, -30, 2, -1, -27, -23, 7, -20, -127, -42, -13, -55, 5, -10, -56, 12, -55, 0, -1, -33, -42, -1, 9, -25, -14, 7, -7, 10, 4, 5, 11, -31, -27, 3, 8, -2, -12, 16, -25, -4, -35, -9, 13, 11, -27, 0, 13, -107, -25, 1, 4, -65, -74, -52, 38, 10, 0, 1, -16, -15, -34, -7, -36, 18, -8, -35, 21, 4, -69, -3, -48, -58, 
  1, -1, 8, -2, -22, 6, -14, 6, 9, -1, -30, -60, 11, -5, 3, 21, -18, -60, -60, 4, 15, 17, 8, 9, -14, -22, 4, -31, 4, 8, -21, -26, -2, 0, 3, -15, -23, 10, -1, -15, -40, -17, -32, 3, -65, 15, 15, 12, 11, 12, -43, -6, 10, 4, 7, 10, 9, -27, -5, -2, -13, 13, 6, -12, -12, -15, 1, 19, 6, -8, 20, 7, 0, 5, -78, 6, -25, -21, 3, 2, -26, 11, 4, -35, -13, 4, -27, 19, -25, 9, -4, -21, 11, -21, 12, -2, 2, 14, -48, -49, -21, -3, -10, 3, 10, 7, -27, 11, -32, 2, -32, -17, 18, 5, -45, 2, 5, 9, 5, -15, -16, -11, -59, -6, 12, -9, 15, 12, 7, -2, 4, 8, -25, -30, 10, 12, 9, 17, -34, -83, 13, 3, 5, 18, -38, -78, -52, -1, -1, 10, 14, 5, -12, -13, -6, -29, -2, 4, -14, -14, 3, -6, -16, 4, -16, 7, -5, -18, -59, -16, -25, 2, -58, 6, 4, 15, -9, -21, 22, 4, 3, 10, -14, 10, 5, -5, -4, 2, -5, -2, 9, 5, -24, 8, -3, 18, 7, -47, -46, 10, -6, 5, -40, 3, -31, 2, -8, -8, -25, 10, 13, -27, -3, -4, -16, 9, -8, 11, 16, 8, 1, -24, 1, 6, 0, -29, -45, -32, -19, -19, 27, 3, -1, 1, -18, 6, -20, -2, 13, -18, 12, 2, -21, 2, 6, 15, 7, -26, -13, -7, -15, 3, 3, -9, 13, -4, 
  9, -10, -42, 2, 29, 31, -49, -49, -41, -35, 29, -33, -27, 13, -4, -58, 15, -4, -17, 4, 11, -8, -56, 12, -41, -28, 2, 8, -7, -42, 19, -7, -26, 18, -13, 1, -1, -1, 11, -11, -26, 1, -5, -29, -65, 8, -58, -76, -11, 24, -46, 17, -22, 8, 16, -47, -55, 29, 2, -1, 1, -44, -3, 2, -16, 38, 5, -16, -80, 27, 17, -70, 8, 13, 3, 6, 15, -60, -19, -8, -27, 7, 34, -19, -29, 15, 15, -18, 19, -6, -34, -46, -47, 11, -3, -33, 3, 27, 2, -25, 7, -2, -15, 9, -26, 4, 11, -13, -5, 10, 18, 2, 1, 19, 10, 32, 4, -19, 2, 12, 23, -1, -44, -2, 8, 33, -31, -40, -3, 13, -48, 14, 7, 20, -69, -28, -37, 23, 27, -50, -40, 14, -11, -42, 11, -8, -10, 6, 16, -40, -76, 7, -47, 1, 8, 8, 0, -40, 0, -8, -15, 15, -25, -2, 0, -4, 1, -22, -26, 9, -15, -5, -70, 6, -41, -64, 40, -9, -66, 20, -8, 2, -8, -38, -54, 14, 2, 6, 8, 26, -2, -10, -15, 43, 14, -20, -83, 7, 18, -25, 7, 16, 4, 9, 19, -43, -2, 11, -15, 12, 1, -21, -45, 17, 10, -14, -26, -13, -31, -54, -55, 7, -10, 17, 2, 35, 8, -56, 7, -9, -39, 11, -56, -3, 2, 6, -10, 11, -25, 7, 20, -10, 20, 41, 6, -21, 4, 10, 18, 3, -44, -8, 3, 14, -57, -38, 
};
const TfArray<2, int> tensor_dimension11 = { 2, { 5,256 } };
const TfArray<1, float> quant11_scale = { 1, { 0.01528394129127264, } };
const TfLiteAffineQuantization quant11 = { (TfLiteFloatArray*)&quant11_scale, (TfLiteIntArray*)&g0::quant10_zero, 0 };
const MODEL_SECTION(EI_MODEL_SECTION) ALIGN(16) int32_t tensor_data12[128] = { -437, -107, 483, -514, 1232, -198, 170, -186, 513, 710, -2614, -227, 163, 423, -38, 391, -252, -293, -242, -384, -384, -850, 130, 464, 401, 766, -667, -818, -1244, 234, -1559, 178, -368, -804, -907, -121, -1021, -935, 54, 418, -745, -27, -1590, -784, -730, 178, 118, -570, -730, 534, -594, -701, 105, -1783, -253, -48, -196, 229, -1204, -1442, -61, 543, -1191, -703, -2336, -991, -1539, -70, -1098, 596, -214, 94, -1212, -438, -489, -1257, -870, -567, -177, -646, 384, -790, 246, -265, 763, -702, -942, -1018, 720, -2, -1724, -993, 841, -1613, 182, -346, -144, -366, -402, -336, -211, -948, 240, -858, 319, 626, -305, -1510, -1376, -664, 73, -1514, 213, -486, -1453, 230, -480, -1773, -468, -684, -1448, -6, -935, -1238, -873, 949, 77, -228, };
const TfArray<1, int> tensor_dimension12 = { 1, { 128 } };
const TfArray<128, float> quant12_scale = { 128, { 0.00036096703843213618, 0.00042221715557388961, 0.00029879872454330325, 0.00046724881394766271, 0.00041013045120052993, 0.0004037383187096566, 0.00043066879152320325, 0.00036162036121822894, 0.00035983289126306772, 0.00035078800283372402, 0.00038148692692629993, 0.00045856551150791347, 0.00036405041464604437, 0.00039688826655037701, 0.00040724911377765238, 0.00041278649587184191, 0.0003707359719555825, 0.00036857914528809488, 0.00049601297359913588, 0.00042648648377507925, 0.00043760720291174948, 0.000408584950491786, 0.00043053142144344747, 0.00033110615913756192, 0.00033149175578728318, 0.00035689811920747161, 0.00046677739010192454, 0.00033221874036826193, 7.1548995038028806e-05, 0.00043506917427293956, 0.00038360516191460192, 0.00029726096545346081, 0.00057979929260909557, 0.00035514525370672345, 0.00034264821442775428, 0.00038451925502158701, 0.00014274026034399867, 0.00036191061371937394, 0.00033140977029688656, 0.00039395023486576974, 0.00038074256735853851, 0.0004099113866686821, 0.00038450717693194747, 0.00045319317723624408, 0.00041855964809656143, 0.00028203908004797995, 0.00047509887372143567, 0.00042539031710475683, 0.00041434323065914214, 0.00034987772232852876, 0.00035577698145061731, 0.00034122858778573573, 0.0004331777454353869, 6.7971748649142683e-05, 0.00067613919964060187, 0.0003816060780081898, 0.00036272109718993306, 0.00033716778852976859, 6.3794439483899623e-05, 6.8864625063724816e-05, 0.00038277506246231496, 0.0003772952186409384, 6.5082778746727854e-05, 0.00055512826656922698, 0.00036166087375022471, 0.00035209147608838975, 0.00030546158086508512, 0.00043725071009248495, 0.0003362493880558759, 0.00034295525983907282, 0.00042042369022965431, 0.00034091278212144971, 0.00043427219497971237, 0.00037192829768173397, 0.00039998837746679783, 0.00049763702554628253, 0.00051639950834214687, 0.00048291584243997931, 0.00041569999302737415, 0.00039812069735489786, 0.00045461356057785451, 0.0003400225832592696, 0.000487854442326352, 0.00035919834044761956, 0.00041305270860902965, 0.0003922806354239583, 0.00046705696149729192, 0.00036103624734096229, 0.00056202604901045561, 0.00039541316800750792, 0.00036168037331663072, 0.00037302536657080054, 0.00025025231298059225, 0.00040139787597581744, 0.00033656178857199848, 0.00037083378992974758, 0.00050377222942188382, 0.00054466864094138145, 0.0003196887846570462, 0.0004122626269236207, 0.00037685979623347521, 0.00021627258684020489, 0.00046245308476500213, 0.00040150128188543022, 0.00040678921504877508, 0.00034817069536074996, 0.00033970046206377447, 0.00040035083657130599, 0.00044857795001007617, 0.000439027528045699, 0.00062936643371358514, 0.00032638976699672639, 0.00044643276487477124, 0.00044289580546319485, 0.00040987014654092491, 0.00047025620006024837, 0.00067426677560433745, 0.00036290386924520135, 0.00035786672378890216, 0.0003858084965031594, 0.00054044066928327084, 0.00039092250517569482, 0.0003895116678904742, 8.0077443271875381e-05, 0.00028101136558689177, 0.00046161757200025022, 0.00033866739249788225, 0.00039471185300499201, } };
const TfArray<128, int> quant12_zero = { 128, { 0,0,0,0,0,0,0,0,0,0,0,0,0,0,0,0,0,0,0,0,0,0,0,0,0,0,0,0,0,0,0,0,0,0,0,0,0,0,0,0,0,0,0,0,0,0,0,0,0,0,0,0,0,0,0,0,0,0,0,0,0,0,0,0,0,0,0,0,0,0,0,0,0,0,0,0,0,0,0,0,0,0,0,0,0,0,0,0,0,0,0,0,0,0,0,0,0,0,0,0,0,0,0,0,0,0,0,0,0,0,0,0,0,0,0,0,0,0,0,0,0,0,0,0,0,0,0,0 } };
const TfLiteAffineQuantization quant12 = { (TfLiteFloatArray*)&quant12_scale, (TfLiteIntArray*)&quant12_zero, 0 };
const MODEL_SECTION(EI_MODEL_SECTION) ALIGN(16) int8_t tensor_data13[128*1*3*64] = { 
  /* [0][0][][] */ -14,10,-30,-3,43,23,17,-47,-31,-30,-24,42,8,-40,-99,-4,-6,-39,-20,-90,23,29,34,47,2,56,5,-104,30,-29,-52,-9,-21,-115,-32,7,-35,53,2,-53,-14,61,8,10,11,17,-16,1,37,37,-127,-21,23,-28,19,-57,31,-33,39,-1,-45,61,-40,-32, -29,-2,-44,-22,40,-17,20,-80,-51,-17,-13,4,31,-4,-75,4,-1,22,-50,-9,-2,-36,41,-57,-14,-9,-4,-109,31,-63,-34,-36,-21,-18,-90,-23,-27,59,-25,23,-34,50,-19,4,-2,20,13,-4,16,-24,-85,-26,-44,22,-9,-30,-1,-25,28,29,-10,-23,-19,-41, 0,-1,-55,-35,-1,6,-46,6,27,-37,25,9,-41,48,-95,23,7,-21,-20,-62,35,40,55,7,-2,60,14,-34,44,19,-9,62,-14,4,46,4,4,41,4,-44,-31,-25,23,-17,-51,-38,-9,-8,13,45,-50,-8,-10,-16,37,-8,9,-40,32,34,-25,-4,9,-70, 
  /* [1][0][][] */ -17,-113,-127,-33,8,23,10,-76,22,2,-47,-18,-30,-4,6,2,41,33,-53,-19,15,-33,71,39,0,17,20,-51,12,-13,-5,12,-30,-87,5,26,-12,-6,21,-68,23,24,-11,-52,-20,-19,-14,8,41,-92,-14,-23,-13,-71,33,-87,5,-25,0,-29,-36,0,8,-23, 8,-35,-108,-50,61,-11,-21,-16,-27,3,44,18,-43,13,-48,-17,23,48,-30,-51,-13,58,72,-12,-2,22,-19,-90,-39,-50,11,20,-22,-26,-48,18,-40,-23,6,-101,-49,-3,22,-71,-16,-33,-11,13,37,35,-61,-8,-37,-47,30,-37,1,-8,-13,0,-3,-29,-18,0, -8,1,14,-65,35,-19,-11,-6,-29,31,-7,42,-20,-1,-67,20,-17,36,-15,16,11,-55,16,28,45,67,-21,-55,-14,-30,-29,40,23,-16,-54,9,44,2,0,8,-55,17,-19,-29,24,-103,23,2,61,34,-33,22,-15,26,35,-39,29,-51,35,25,4,-5,5,-1, 
  /* [2][0][][] */ 8,-9,-38,-43,-12,-16,-32,-21,-92,19,-8,-69,38,-59,22,-16,-25,48,35,-91,-20,-29,-1,-11,27,-30,16,34,23,7,-4,-127,48,-44,77,81,19,-17,44,18,18,50,19,-24,50,-48,-74,3,-15,1,-17,82,-49,8,48,-28,16,51,9,52,33,-35,34,-28, 42,-2,-6,-64,49,-40,-74,-17,-62,17,-18,-5,-80,-98,-26,13,1,9,57,-71,23,52,31,-27,1,-24,-6,15,-2,4,16,-105,-2,-54,65,55,12,16,51,-90,34,-59,25,-23,45,-97,3,-23,18,38,-37,84,-33,-1,-4,-76,1,0,-21,33,12,-21,5,-46, 17,5,32,-91,-5,34,-23,-22,-125,-1,-32,12,13,-63,-28,15,31,2,19,-46,-26,-18,-1,-2,-40,-16,35,12,-28,-75,-14,2,2,-44,-19,70,31,11,52,72,37,38,37,19,-26,-84,-14,-17,-40,19,-31,-22,-8,-56,-8,-31,72,-76,7,21,51,-4,52,6, 
  /* [3][0][][] */ -30,11,14,-12,21,-6,13,-12,57,35,1,30,-67,28,-72,-102,6,50,7,-12,15,18,56,45,-24,-28,19,-18,-29,-10,0,34,50,46,5,34,-5,-29,-36,-88,-11,13,21,17,41,15,-127,-5,-59,6,-65,4,-62,-2,-41,-44,-37,-28,24,12,28,-2,-36,34, -49,13,18,-31,26,-20,0,-36,30,19,-19,21,-65,31,-71,-77,-32,32,-1,-18,21,-1,-22,-6,6,-54,-4,1,-12,-29,-18,23,78,-21,4,15,10,-20,-36,-48,-2,24,-12,18,21,-8,-89,4,-64,-6,-30,-10,-65,-13,-65,-34,-47,-21,-6,-3,-35,20,-9,-13, 34,18,2,-28,45,-31,-4,-9,-1,2,-12,29,-62,1,-6,-83,15,7,-9,-24,-15,-12,12,48,45,-12,49,-5,-4,-27,0,63,36,-29,-14,-22,-41,-19,-11,-37,37,-8,32,2,32,12,-78,2,15,32,-45,34,-73,42,-6,-28,-22,-37,-18,20,-57,-26,-10,-1, 
  /* [4][0][][] */ -14,10,22,34,-8,-10,-34,0,-8,-2,-1,13,31,-9,1,-63,7,24,17,-5,6,13,2,15,-8,56,-6,-18,-5,-55,-49,-19,-94,-6,-4,31,28,-80,-1,-37,-45,20,22,-49,4,-27,-127,12,4,-2,-27,-4,63,8,7,63,-1,19,17,-37,29,52,-17,62, 9,-16,33,5,-24,-2,-18,-28,-15,-37,-2,3,23,-32,-20,-82,-18,6,-35,20,2,5,-79,52,-35,61,-30,-21,-53,-88,-26,9,-28,-37,26,34,17,-60,-6,-56,-54,25,-7,-13,41,-19,-124,11,3,-27,-29,26,48,-61,-15,23,-41,17,50,-22,-23,45,1,27, -30,-9,82,4,-31,4,-33,17,-16,-11,2,34,37,-39,24,-40,-46,14,-5,5,-24,36,-95,-5,25,-2,14,-55,-15,-55,-29,7,-27,-17,-3,-22,33,-81,-18,-20,-96,29,-2,-2,33,-3,-46,0,34,0,-45,25,56,-25,-7,-6,-10,-26,-23,-44,26,70,-44,39, 
  /* [5][0][][] */ -46,11,-54,-67,-84,-12,-46,62,-4,-9,-65,43,32,-55,-38,9,-4,-12,-105,51,0,30,-20,-56,26,-7,-14,3,-67,-19,-35,-2,3,-70,-64,-33,-13,18,-6,-30,9,-11,-32,-52,-5,-39,3,4,26,2,-40,-37,-8,-36,-12,-6,31,-55,-7,-30,-4,-92,-38,13, 8,-119,-5,-76,-48,21,15,-9,-55,2,-6,29,13,7,41,17,0,9,-29,28,11,-58,34,-7,51,39,21,47,-38,17,-22,-11,-59,24,-23,20,43,37,-20,-22,-20,-5,15,-16,-31,-45,2,-7,53,-50,5,25,23,-10,44,43,4,-46,37,15,43,-12,-59,-83, 3,-26,-8,-61,-8,-2,-14,5,2,14,31,44,-30,-8,42,17,-26,10,35,40,1,8,-33,6,-127,16,-12,46,-94,7,16,-53,-67,14,-33,41,-11,-9,-20,8,-56,56,31,20,-6,-32,14,5,-30,34,28,20,8,-37,27,28,20,21,-5,-2,33,-10,-32,-71, 
  /* [6][0][][] */ -56,24,-4,42,11,-28,4,46,-15,0,29,13,17,-31,-23,15,-4,-63,30,4,-2,17,34,-11,-29,52,46,0,2,-29,-8,-60,14,-17,-62,43,24,-29,-5,-4,8,-13,13,7,1,6,-26,-9,-9,16,-35,42,0,-12,38,0,-67,-12,15,10,15,-4,19,22, 61,-26,-48,-89,11,-82,-88,-20,-42,-54,-24,-12,-38,9,1,27,20,-26,40,-55,18,-4,-53,23,18,-7,-9,-31,-46,35,15,22,-17,-33,39,51,-2,6,-2,15,11,-6,-1,-8,-39,-94,-2,-4,3,-8,-16,16,17,6,14,16,3,-22,17,-4,-5,-18,-14,22, -114,-11,-11,13,-39,-59,-38,102,-27,-59,-30,6,-55,-4,6,33,-26,-50,-22,-3,5,-68,-42,-96,64,-46,-60,-4,6,-8,-33,2,-42,10,-2,-90,41,-11,-1,15,-36,-76,-54,-32,-127,-41,34,-4,3,-95,-52,-81,5,5,20,-38,-1,-41,-56,-49,-12,31,-96,26, 
  /* [7][0][][] */ 1,4,14,-4,27,36,24,-45,33,21,0,-53,42,-55,8,19,-82,22,-40,17,-97,-19,-38,6,-39,-12,-4,3,-6,-3,21,-46,16,23,59,41,-70,-72,7,-30,-82,22,-23,-26,-6,5,1,1,-30,36,-5,23,5,17,-79,-2,-27,29,-127,51,14,28,25,-12, -14,-16,-49,-16,17,-13,4,-52,36,62,11,-53,16,-29,-20,36,-60,16,-20,14,-98,39,-79,14,-25,-20,-39,20,-13,-23,35,-8,56,-34,55,39,-61,-66,15,-9,-18,-28,0,-38,-87,12,-18,10,-60,11,-16,32,-23,18,-78,16,10,32,-75,18,-23,46,5,-12, 53,-17,-45,10,41,-89,7,-36,19,42,-7,-76,71,-29,30,21,-70,-31,-27,0,-72,-49,-56,-39,-110,-3,-13,1,-57,18,-22,-36,40,23,53,71,-13,-38,-6,3,-12,1,7,-92,12,18,42,-10,-18,18,1,41,-61,-4,-70,35,24,46,5,7,18,47,2,-96, 
  /* [8][0][][] */ -55,24,54,-43,-3,-41,-7,-36,53,16,21,6,2,-15,-16,8,-81,10,33,23,7,-31,-35,44,-6,-20,41,19,-23,18,9,-60,7,-21,27,65,29,-44,-8,21,-18,15,-16,6,0,-45,9,9,-37,4,21,-13,43,1,-43,-59,58,22,18,54,24,-20,-3,67, 11,2,20,-74,26,-72,-61,77,-9,-18,14,-10,-34,19,23,21,-5,15,-17,52,5,22,-55,-69,9,40,16,-20,-37,-37,25,-49,-11,-57,-12,82,18,-18,7,-6,-65,-5,30,43,-13,-66,-43,14,-63,23,7,48,6,6,-13,-24,-51,5,1,13,8,-3,-27,18, 12,9,-16,-110,-2,-118,-18,-33,-53,-13,-55,7,-34,34,-10,25,21,-66,-18,-16,3,-44,-57,23,43,-31,-26,-38,-54,36,29,-24,-43,-27,17,35,43,-7,-31,-13,19,13,5,-2,-61,-127,-5,11,-23,12,25,-20,77,17,-9,-10,3,-48,42,55,13,-30,-2,41, 
  /* [9][0][][] */ -20,-100,-68,-6,-55,23,-28,-9,-15,27,-28,-51,-23,22,19,40,-47,-56,59,9,-1,-57,-50,21,-127,46,21,-13,-17,11,-23,-47,40,-16,31,-42,27,10,13,16,1,41,-91,2,-80,1,42,14,-34,-23,37,-13,37,-16,18,-5,4,-2,35,17,44,-9,4,-34, 3,-30,-39,-51,21,-4,-50,29,12,41,14,-39,14,-20,-46,-13,8,5,57,14,9,33,29,-24,-97,79,-5,6,-48,43,-19,-73,-65,46,13,13,41,-12,-1,-23,-9,38,24,-100,-28,-72,-55,-14,19,-3,-8,-6,37,-86,20,1,-100,-13,41,-20,71,35,-94,-60, -4,9,48,-3,14,-73,-78,-24,45,84,-34,28,10,-4,-31,-43,8,0,40,-42,-28,-8,-50,-66,-53,-12,-28,18,-27,-36,-19,-44,26,21,33,-27,-18,-112,-20,-54,53,19,-21,-45,23,-38,-34,9,4,-13,3,10,-24,-89,-26,-7,47,5,-8,-55,6,-52,-32,94, 
  /* [10][0][][] */ -47,-12,41,8,-53,21,41,7,28,33,13,-5,-36,26,-1,-12,27,21,-51,9,-13,-25,5,107,-56,43,-19,-73,14,24,19,-36,40,-4,3,-6,-113,4,26,-29,67,-24,-84,11,-19,8,-46,0,25,34,-11,-47,-38,17,22,-43,35,-32,47,-51,-27,34,-17,26, -9,-17,22,-5,-11,16,10,12,17,-21,7,1,-18,37,-10,-48,-20,2,-8,15,-60,-62,-9,39,-37,8,-34,-33,-3,9,-27,-12,-17,-10,-37,-6,-101,-8,4,6,22,-22,-72,13,-15,-33,-54,-5,-25,15,-35,-81,-65,-58,-6,-27,13,-30,-62,-34,-64,2,18,-43, -81,-8,0,-1,2,14,23,36,-6,-31,-25,20,-6,47,-6,-27,6,12,-16,2,-57,-44,5,17,-4,-15,42,-69,-12,18,-7,-4,7,41,-123,19,-126,-12,-29,28,69,-53,-28,3,9,8,-29,-3,43,36,24,-82,-106,-2,22,-31,1,-25,10,-81,-15,18,-19,-127, 
  /* [11][0][][] */ 9,0,23,-30,-26,-58,18,49,-27,-20,-54,29,-25,-31,1,-1,14,6,-17,56,5,-12,25,-2,-24,17,-2,-18,-43,-4,-37,-28,16,-11,-13,7,20,-31,-11,-4,-16,-10,-26,-28,-60,-4,18,5,21,-17,-50,-23,22,21,-20,42,59,-60,-9,11,-12,-10,-15,46, 25,-34,3,-19,-43,-76,-43,5,-58,-12,-127,30,-19,-85,-16,-8,-17,-18,9,27,21,-36,-26,-77,42,17,4,-9,-37,1,-93,-18,-26,-6,34,-38,-1,12,16,-25,18,-2,-39,-38,-61,-65,11,-8,0,18,-59,-2,29,54,-32,45,25,-19,-30,-23,-7,-1,-20,30, -11,25,50,-2,-99,-36,10,7,-62,16,-120,18,-25,-24,-21,1,-12,-17,-67,10,21,-46,-37,-30,12,-7,2,-11,-22,-12,-74,-1,-4,27,-20,56,94,-6,-15,-8,13,-33,-39,-98,-38,-19,-5,-12,-19,9,-31,4,50,11,-37,-2,36,-64,2,-13,11,-10,-29,-21, 
  /* [12][0][][] */ 41,-15,-61,-43,-17,7,-32,40,-63,54,13,-2,-49,-79,0,-3,2,42,54,-34,-4,14,12,-19,-35,16,13,47,-45,-42,26,-79,57,1,57,82,48,17,37,-15,12,39,24,-8,51,-108,-81,13,-12,40,-14,52,6,11,19,22,-78,15,-10,15,46,-4,35,-29, -7,-37,46,-22,-26,15,-74,-56,-26,20,16,-2,-51,-87,1,17,-13,-16,22,-52,38,38,36,21,-7,21,1,54,-29,14,-12,-79,-18,-32,35,56,24,10,35,-26,5,7,-6,10,60,-127,-47,4,14,21,-27,38,-38,40,14,-3,-59,-39,-9,20,16,13,37,-64, 20,-31,10,-40,-11,-23,-15,-56,-53,17,-16,12,-1,-25,-5,1,-21,12,53,-46,-3,13,55,27,-36,53,6,44,-7,-48,-8,11,5,-54,18,82,9,-16,20,26,38,-7,17,-24,-8,-74,-7,2,-36,33,3,-6,-49,29,-7,19,35,-13,39,25,48,23,65,13, 
  /* [13][0][][] */ 56,-42,38,-43,0,-16,6,-66,-69,22,4,-7,-3,-50,42,-12,-10,9,-82,13,25,-78,-1,-69,-2,26,-3,-32,17,1,-14,-20,24,-13,39,-35,9,-16,-7,1,-37,-31,-53,-23,-2,-17,6,-3,11,-62,-9,8,27,28,61,61,-94,-2,-9,65,15,66,59,-16, 44,-40,-38,-46,16,-28,1,-34,-83,-7,10,-89,-6,-43,23,8,0,29,-30,44,21,23,0,-71,-54,58,-7,-14,-17,14,14,-64,5,-27,37,-127,-6,9,17,-10,-28,-39,-50,-15,-24,-36,5,7,15,-122,-57,19,27,0,36,26,-79,5,-3,35,8,31,14,-46, 44,-61,-23,-70,9,-2,2,-37,-60,38,6,-87,27,-35,-24,20,1,-2,-45,14,41,-34,-18,7,-28,60,-66,-7,-9,11,-10,7,32,22,46,-40,33,27,9,33,-61,-14,-8,-23,-32,-28,30,8,-29,-93,-12,-17,23,-4,-42,28,-85,10,-26,51,38,68,38,-61, 
  /* [14][0][][] */ 22,1,33,-9,35,20,-13,-5,29,0,-41,-14,38,-65,-67,5,19,16,15,11,7,3,50,59,-3,11,15,-86,4,2,-35,-14,-63,-22,55,80,0,17,-19,-53,23,20,10,-11,31,1,-54,6,-14,-14,-51,-61,9,-20,7,30,-43,-8,9,18,82,17,5,28, 1,-7,23,-11,23,21,-15,-93,-6,-20,-51,3,23,-13,-84,18,-57,-42,8,-30,-5,-34,17,18,-6,-56,3,-81,5,-61,-67,-66,-73,-66,-13,45,-14,9,8,-41,-14,1,-19,-34,36,-15,-79,-13,-92,-63,14,-70,31,-96,-11,24,-51,0,7,5,33,-51,12,-1, 22,5,48,14,2,4,-30,2,9,-40,-48,19,68,-10,-8,1,-48,38,4,-64,-38,-28,5,-18,-95,-58,-33,-70,26,-53,-35,-50,-32,3,-20,44,44,-6,7,-16,54,26,5,-26,41,0,-10,3,2,-15,-63,-18,0,-62,-3,20,33,2,55,38,88,-57,13,-127, 
  /* [15][0][][] */ -25,-53,-45,23,-13,-2,22,18,-20,20,-21,-102,-27,10,-94,-6,19,-24,48,-71,-10,6,-15,-2,-61,11,32,-24,49,8,31,-126,4,-9,-12,-3,-13,-2,-13,-11,-19,-19,-26,34,-12,1,8,-1,-4,-28,7,12,-4,-88,29,24,-66,-40,48,12,26,-29,63,4, 4,-80,32,-9,-87,-19,-42,-46,-79,-3,-36,-96,2,36,-51,7,34,16,42,-70,12,46,-14,-24,-54,14,20,-77,26,-4,30,-42,-7,7,9,17,-6,19,14,10,-42,18,20,-26,27,-78,-2,2,-7,-63,2,13,29,-83,46,30,-127,-37,5,-8,39,-84,55,-71, -9,-90,-30,28,-61,17,-16,8,-54,2,-26,-24,-25,4,-64,-3,15,-29,47,-77,-9,4,-6,-4,-49,51,-8,-6,7,35,22,-25,4,-13,27,-41,6,-4,4,22,5,-10,2,-55,-27,-39,-2,12,-48,44,-25,-10,56,-97,18,30,-27,-32,15,6,13,13,36,5, 
  /* [16][0][][] */ 35,-46,12,-80,5,5,-1,-47,-20,-24,-27,-19,-77,4,14,-43,-10,9,-35,-27,-11,-20,51,-54,34,21,-27,-33,-17,-29,-16,1,-50,67,-4,5,57,-106,10,-87,93,30,12,-42,-26,-16,-6,9,72,-41,25,-95,-10,41,-19,7,-5,21,16,35,63,31,-2,61, -17,1,-21,6,33,-26,-18,-12,41,-9,37,-7,-118,12,3,-69,8,-23,11,0,-14,0,64,-86,-47,11,15,-25,-28,-43,-50,-26,-96,40,-22,5,14,-87,17,-102,17,-22,35,-25,-35,15,-40,5,-41,-7,25,32,-24,12,-47,-23,-50,-4,7,-44,36,28,-35,88, 51,6,-42,14,41,-7,11,-61,29,54,48,1,-127,-6,-10,-115,-39,10,-19,9,38,-7,7,-80,60,-24,1,-7,-26,-113,-31,30,-35,39,12,39,-2,-6,51,-113,-70,-1,67,22,31,4,-61,2,-24,44,17,22,17,0,-31,-29,-61,10,-9,-58,69,18,-17,57, 
  /* [17][0][][] */ 20,-12,22,-66,-55,13,-5,7,-11,-45,-45,-31,-17,-12,17,0,25,41,-67,36,-16,-34,33,25,-37,31,23,-22,-19,-14,8,-2,43,-26,7,-38,-2,16,25,3,10,48,-35,68,-97,-28,-24,-10,26,26,-8,-13,-32,14,22,-5,12,-127,35,8,-44,1,-63,109, 15,-12,13,-47,-74,-24,30,17,-115,-27,-86,26,-7,-39,-23,-6,4,79,10,29,18,-51,46,0,33,37,3,-58,-36,-9,-121,-43,-15,-24,-26,-28,35,46,35,-38,25,37,-53,8,-65,-33,-23,-9,-33,1,-29,2,11,52,10,-12,41,-44,8,-23,-49,-3,-44,68, -46,6,20,-22,-41,-37,-15,20,-60,0,-56,68,-45,9,31,7,-10,40,-11,-16,6,-72,2,-52,33,-15,-27,-36,-6,-16,-71,-5,-63,3,-50,-11,25,5,-26,-11,-1,-15,-43,-58,4,-25,24,1,18,-64,28,-30,-7,15,-9,-62,4,-47,-31,-4,60,-46,-18,114, 
  /* [18][0][][] */ 20,-21,-5,-5,-97,-23,0,58,20,9,-34,3,14,-36,29,14,19,-2,-32,53,8,-14,29,-26,31,28,0,-16,-44,3,-30,61,13,-38,6,-42,2,7,8,-23,-4,-2,6,-6,-40,-14,17,5,47,-23,-3,-6,-2,7,-14,4,57,-18,55,-10,19,45,-68,83, -1,7,3,-49,-127,-31,-8,-12,-35,-6,-88,-19,14,-47,2,-5,20,19,-32,-4,10,-35,29,-10,-19,36,25,-45,7,29,-71,20,-17,-39,-13,7,-6,7,-3,-10,23,-22,21,-50,-35,-28,7,-1,-15,-40,-33,-8,37,15,-51,20,12,20,-21,-39,-2,-41,-65,52, -15,11,19,-1,-23,6,1,22,13,-1,-31,-52,28,-28,-2,7,18,9,-49,9,-13,8,4,-32,-5,23,-4,-3,-8,-2,-1,-36,-16,-13,14,-39,37,-22,-64,-16,-19,-64,-3,-29,-16,11,2,-14,-16,-39,-18,-4,39,-11,-40,17,3,35,-46,-6,58,-15,-38,44, 
  /* [19][0][][] */ 8,7,-27,-8,-97,23,-8,60,50,23,-50,-74,-27,22,-17,-32,-22,27,-30,28,-23,14,-22,-14,2,50,8,47,5,-80,1,-37,39,68,-15,39,1,-31,-65,-26,6,-52,-28,9,12,5,13,11,17,-21,10,-26,31,27,-50,22,44,-1,29,33,13,-55,-13,1, 9,-43,5,-24,-98,34,-18,-30,40,49,-21,-57,-15,-1,-34,13,44,19,5,-10,-8,36,28,-22,7,48,14,-20,-60,-6,27,-38,32,51,8,-21,-43,1,-18,-43,-1,-18,34,-32,56,-27,1,1,17,-65,20,-24,12,-86,33,31,24,57,36,-24,7,-16,-53,-7, 3,-5,-35,2,-127,27,3,21,39,28,-14,-30,-19,27,5,0,-15,-26,18,43,-19,8,55,-12,-16,37,3,6,-43,-22,-17,-11,-8,60,-14,46,25,0,-21,-54,-6,-10,-44,-6,-7,-6,-33,22,12,-5,43,-7,21,-44,19,44,34,35,46,7,27,20,-59,-18, 
  /* [20][0][][] */ 35,-94,8,-62,-21,28,-9,-29,8,13,12,-19,5,33,-3,8,23,55,2,1,-29,-3,38,18,-20,0,8,15,-32,-28,28,-19,9,16,9,17,30,-12,-18,-34,1,-6,15,2,10,-13,-13,-9,25,-36,42,-11,44,-75,25,-29,20,0,-24,-8,26,-4,12,-72, -15,-127,45,-53,-54,2,-16,-33,6,11,22,-21,3,8,2,8,-21,38,28,29,-7,7,2,-4,-82,41,-8,26,-97,11,-11,-7,-36,41,1,14,30,35,-15,-39,6,-12,3,-39,-40,-3,-7,-3,4,-25,23,30,56,-35,38,-50,-19,-15,3,-28,47,-8,-59,-108, -74,-97,-7,20,26,20,-12,-22,20,33,16,23,-23,14,-6,12,7,0,36,-11,17,-23,17,-16,-50,41,19,-5,-61,16,2,-30,12,-26,-14,-18,-9,18,0,-27,-36,-17,16,-41,-20,-38,10,4,22,30,13,-2,39,-18,18,-34,-13,2,-36,-56,38,10,20,-98, 
  /* [21][0][][] */ -33,-37,52,-4,-46,-23,30,39,11,-48,-12,-20,43,21,-23,19,31,7,-27,-11,-3,-27,-96,1,-14,-7,-39,-28,0,31,-10,6,-48,11,17,3,24,13,-1,18,-40,-7,8,-11,-25,9,3,11,-2,7,25,-6,18,18,-10,-28,-8,36,30,11,-28,16,-64,-102, -19,-42,23,-39,-52,-20,16,35,-14,-72,1,14,-14,29,25,25,6,-56,39,-69,-5,-24,-74,-28,-10,-56,-54,-20,-14,0,-23,72,-65,-21,31,17,13,8,5,-8,-61,54,14,-30,0,-49,5,12,-27,-35,32,-29,6,69,-4,-17,0,-36,-12,-19,-47,-15,-78,-127, -31,-46,55,-11,-30,-62,-26,41,-13,-17,-30,16,42,33,19,2,9,12,33,-28,-8,-19,-70,3,5,-50,-33,-10,1,30,-58,10,-50,32,20,-15,-2,3,20,23,-60,14,16,-33,-57,-42,19,14,-11,-54,-6,-18,27,79,-4,-19,21,-26,12,-54,-45,-4,-25,-75, 
  /* [22][0][][] */ 16,-94,11,-1,-32,-33,-1,15,0,20,-51,-50,1,31,-29,25,5,-25,-20,-79,-7,-28,16,-39,-73,-29,17,-55,-45,-5,-9,-80,-3,4,-19,-6,10,-11,-5,5,-5,54,-58,23,22,-21,10,16,-22,19,40,8,-19,-7,8,22,-44,-17,-13,-28,-24,-51,-79,-19, 5,-29,18,-29,-27,-63,-57,-3,18,50,-46,-19,9,19,-60,14,18,60,-21,-127,31,27,-67,-83,-33,5,31,-65,0,23,3,-39,-2,27,26,40,-40,8,32,3,-37,-14,20,-112,33,-60,-2,3,10,-2,18,5,26,-107,23,-25,-50,-1,41,33,4,-72,-9,-34, -52,33,14,-1,-14,-7,17,-35,8,63,-23,-30,-6,-14,-38,6,32,-27,49,-22,-8,-12,7,-12,-67,-1,2,12,2,41,-12,-31,-22,-45,-30,-5,-20,-6,-10,-15,-41,-3,15,12,-21,-5,-2,5,-61,28,12,-25,-2,-88,-32,-24,-33,35,-30,8,12,7,-24,-22, 
  /* [23][0][][] */ 0,-2,58,9,19,-7,-29,-26,33,-5,-29,-22,-6,14,3,-86,63,37,37,19,-11,76,106,105,-107,-45,50,25,7,-58,20,-118,37,25,85,-80,-5,-34,-92,-29,52,24,127,-13,1,-11,-52,8,-117,19,6,40,47,-8,-52,68,-86,-14,81,-54,-7,2,0,17, -74,-9,35,-25,16,-21,-57,36,16,-21,-61,-31,-9,31,-14,-75,9,-6,2,-21,-5,31,17,81,-51,-69,27,34,-19,-83,-26,-104,-6,-26,34,12,-57,-19,-117,-11,52,11,-23,-17,3,-10,-20,-1,-104,15,42,20,14,-4,-91,12,-118,-7,18,-59,-14,-72,-1,-52, -24,16,-83,-25,18,-30,-50,16,28,-66,-12,-3,7,48,-5,-77,43,15,5,-38,11,45,49,35,-106,-16,97,39,14,-51,26,-76,38,22,67,32,6,-20,-117,1,7,80,41,4,24,-6,1,-20,-2,-17,21,28,17,-18,44,12,-120,8,-33,-36,-2,-23,23,-28, 
  /* [24][0][][] */ 49,-11,-20,26,56,-43,-76,11,-5,16,68,-19,-50,64,-7,-120,11,52,14,0,3,14,-12,22,-23,55,-3,-9,-9,-78,-19,8,-45,-27,-5,19,-18,-79,-3,-68,46,-28,51,-99,-26,-60,-127,-13,-56,-14,-48,-30,-5,-44,8,19,-4,-27,-4,-10,16,43,1,89, 30,-18,-105,-35,29,-89,-102,-63,-61,-25,40,-26,-18,-64,-43,-62,-30,21,0,-55,22,25,51,13,15,-12,-46,-8,-41,-124,-16,-2,-45,-98,-20,-13,-60,-28,-2,-5,-114,23,12,-21,16,-80,-30,2,4,-3,-30,-55,-11,-43,-22,-20,-43,5,9,-15,-13,-25,25,41, -18,-26,-28,-36,23,-47,-54,-7,-12,0,42,-34,-14,-19,-25,-30,-19,37,40,-11,-6,-5,-71,20,79,45,-57,65,-35,-45,24,29,-59,-21,-74,14,-52,6,-13,53,-59,-22,56,-3,9,-31,122,11,-29,-20,-46,-66,29,-19,0,-29,-13,-2,16,-26,-10,0,4,23, 
  /* [25][0][][] */ -44,-11,-26,-56,0,-32,-10,11,5,-16,16,32,-1,-59,-8,36,-23,-28,-9,47,7,-26,-10,-27,46,-7,-78,-63,-24,-4,5,-15,-10,-48,-9,17,68,-25,-17,-48,0,5,-14,-99,37,-87,44,-7,-23,-24,-53,-64,0,48,3,-42,-3,-6,-14,-3,13,20,-28,51, 45,-17,74,-85,35,-127,-76,41,-36,35,40,19,-23,-50,22,-30,-16,-1,-13,6,-7,10,-28,-67,-5,23,-84,-7,-101,22,-23,-20,-94,-86,-23,20,24,-26,5,-74,-62,54,-13,23,-11,-96,14,1,-13,12,-28,-36,1,69,5,5,-48,-20,9,-49,33,45,8,-7, -32,-46,0,-49,-21,-61,-23,-15,-46,27,17,6,-35,-9,28,3,-10,-18,-13,23,17,-63,26,10,14,4,-33,-14,-81,-7,27,19,-29,-90,-33,26,70,-61,-27,-31,50,2,-11,-18,-34,-58,16,6,-47,-66,-8,-52,8,-40,-7,-28,-63,-20,32,-17,-5,19,-40,78, 
  /* [26][0][][] */ -53,-6,-44,-42,4,2,-19,36,-11,4,-29,-8,-8,-67,8,8,11,39,-46,2,-70,12,3,20,-46,-42,7,24,-8,21,-4,-9,46,-8,-55,-7,35,-25,-110,-4,46,37,-52,15,2,-2,-5,4,9,39,-1,4,-16,34,21,7,36,-3,9,-3,-28,-25,-6,-71, 21,23,-19,-2,29,13,-9,12,-42,56,16,20,3,-37,43,-15,-4,13,42,27,-34,1,-14,-6,22,-72,-56,24,-21,-4,-26,8,28,67,38,1,28,-31,-32,21,-46,60,-17,9,-35,-19,6,12,13,7,21,13,-8,49,-4,38,34,14,-29,-17,-41,21,-10,-127, -15,23,-11,5,20,11,-24,-1,-5,-24,-17,2,18,-25,22,4,-1,-39,-8,13,-6,26,-7,-21,-100,-27,-41,-2,15,-9,39,-44,21,-24,21,-7,27,-21,-58,-26,-44,48,-8,19,14,-20,17,5,-29,71,25,10,8,69,-13,12,49,-39,14,11,-7,18,7,-74, 
  /* [27][0][][] */ 19,-31,-9,-48,-54,22,85,-48,30,13,11,6,-6,-8,36,5,4,0,-42,35,-66,-34,41,-9,-38,1,-80,-15,-29,-28,16,83,44,-2,-22,16,102,-56,-14,-47,6,-22,-36,10,-38,41,22,7,2,-6,19,-1,-32,8,-68,18,5,37,59,-35,67,56,-105,-17, 43,-20,-70,-22,-84,-22,22,-38,-18,1,-8,-6,20,1,14,-46,7,-15,-61,20,-17,-49,-71,-11,-5,0,-46,-23,-56,19,-18,29,-27,0,-66,44,40,-24,41,-80,10,-27,11,4,-8,15,7,6,-10,-66,39,-1,21,18,-77,88,-56,34,12,17,60,-35,-17,3, 1,-6,-19,-11,-53,47,52,12,8,11,40,45,62,-18,-29,-38,36,-3,-55,60,-27,24,100,5,-6,-42,-60,-2,-70,37,-14,33,15,21,21,32,81,-48,17,-127,24,9,0,-5,51,3,-35,-6,-5,-16,35,-30,25,-58,38,98,-11,83,21,38,30,-1,-18,1, 
  /* [28][0][][] */ 20,-72,42,-47,-31,-29,-75,-84,54,-84,33,23,13,-67,-13,-33,-26,-30,-71,-31,-11,9,-63,59,-91,-73,-5,-125,33,-97,-21,-72,23,-53,11,-8,16,-78,14,-5,-77,17,-78,-41,-12,16,-55,-1,-59,45,-22,-46,-120,57,-4,-21,-40,8,11,-42,-20,-54,-109,1, 7,-23,62,-76,-9,-49,-79,-59,14,-2,-7,-19,-7,1,-3,-60,-107,-2,53,-2,-83,-36,-53,17,-52,-71,-1,-48,-66,-22,-2,22,1,-125,16,49,-82,-112,-82,-33,-48,44,22,-73,21,-65,-30,48,44,-78,-4,4,7,3,-72,-52,-53,53,-1,-27,-23,-59,-6,-29, 21,-56,-2,-36,-76,-72,-18,-55,-46,-19,-7,-54,-62,-27,-21,9,10,-20,57,46,-123,-13,-32,-37,2,-56,16,-42,70,14,-58,-77,20,-82,-52,0,-41,5,4,-25,21,1,6,0,21,3,-57,42,-110,-55,-33,-23,6,5,-70,-33,-26,-23,-55,-14,-127,36,-1,-19, 
  /* [29][0][][] */ -16,-14,52,8,0,-56,-2,-20,4,39,-32,-8,1,25,0,11,19,21,18,-72,-34,9,1,-51,0,-6,28,45,-19,23,19,-127,32,-12,25,-42,-3,30,-1,37,9,13,4,15,-15,-39,-12,-12,-20,4,57,29,-32,-26,-18,-11,-6,2,-18,17,-21,-42,22,-5, -6,-10,17,-17,10,-58,-43,52,-32,58,-52,-1,-31,-10,-24,15,12,40,-3,-50,-17,-6,2,-59,-62,-2,14,14,-36,-18,12,-104,-6,21,-14,-41,-2,14,24,22,0,-21,-16,-51,16,-38,17,10,26,30,-3,22,14,-70,-22,9,-30,-6,30,19,0,-9,21,-55, 9,-23,0,-30,-11,-38,-39,16,-16,23,-73,6,-10,40,-2,26,-18,14,-50,-103,-18,-11,-32,-39,11,-28,-13,0,-42,3,32,12,-14,7,-19,-18,35,-44,12,28,26,12,-63,-4,-16,-38,15,5,11,30,48,-10,11,-61,-16,24,33,36,19,18,7,-29,-5,-14, 
  /* [30][0][][] */ -55,-17,-14,23,-5,-19,-31,-55,49,-47,27,-18,-19,25,40,-4,-12,-4,4,-54,-2,-17,26,103,-24,-57,-5,63,-5,-1,-2,-8,-45,-23,27,-8,-1,-51,-47,16,20,70,35,-42,-37,14,-11,10,4,-5,-2,-5,-13,-52,-2,19,62,-26,76,-97,5,-33,-13,44, -102,-10,-29,14,-27,11,1,-44,-1,19,51,-48,-35,-64,-10,16,27,-7,52,12,-95,14,18,75,-33,-59,14,-4,1,-12,-6,-41,-58,19,-8,-13,-99,-113,-61,-36,3,-15,31,-55,-26,19,-59,-1,39,-25,-29,-21,17,-33,-42,-36,16,21,28,-127,-2,-5,-57,1, -28,7,41,55,2,10,9,-68,29,16,-8,-18,-2,-27,20,-3,7,-7,50,-16,-77,27,20,52,-22,-43,28,-5,12,-14,4,-25,10,-70,10,-5,-106,-109,-72,-40,47,-40,59,23,-23,11,-12,2,13,3,-67,-27,-48,-44,-39,-51,-5,-8,-16,-82,-87,43,17,-49, 
  /* [31][0][][] */ -4,-35,-25,-37,4,-12,-23,63,-14,-19,14,-31,-5,-77,4,10,-47,-12,-32,-29,-50,-15,-39,-5,2,2,25,-24,-26,6,-31,-24,-57,-28,-34,-31,-12,26,-69,-72,16,-16,-43,-8,-40,-26,21,-14,-63,-61,-31,-79,-21,-41,-32,-14,-37,3,-59,-33,10,34,-3,-1, -8,17,-27,-16,-11,-127,-43,-2,-15,-32,-12,-11,-27,-51,-1,3,-33,17,-25,-116,-82,-31,-69,54,21,12,23,-16,-1,-4,-63,9,-82,3,-46,-27,-57,-4,-16,-25,45,10,-16,-30,9,-34,47,-10,2,-13,-18,-48,-46,12,-19,-12,3,-25,-8,-2,-52,-14,-6,-21, -11,15,3,-22,-2,-89,-11,1,-11,-2,1,-10,-92,-69,7,23,-38,1,-18,-46,17,-27,-32,50,-33,23,22,-18,-3,19,-46,-16,-39,-71,-18,-88,-24,18,0,-37,76,3,-24,-32,10,-25,-10,-7,-77,-25,28,-16,-45,-43,-14,-12,-41,-29,-33,6,-19,-23,-27,26, 
  /* [32][0][][] */ 20,-12,15,-24,-10,16,21,15,-5,14,-28,-6,-3,-23,-18,-3,-15,-1,-24,-25,17,8,-2,7,-14,31,-16,22,12,-6,3,-5,-5,24,-10,17,20,10,7,9,8,41,32,-12,21,-28,-19,2,-24,5,-13,-12,-6,-77,-17,-20,27,20,35,31,7,-29,11,23, 47,-3,11,-23,-11,13,-27,-37,10,0,-5,-5,-1,-1,-59,-8,-3,16,-36,-51,-8,-39,37,-15,-2,-7,-50,0,-9,-15,16,-7,-12,45,1,17,8,-15,4,-11,8,21,25,-79,18,-27,-34,-4,-32,-18,11,-6,-17,-127,-39,-2,19,6,1,41,33,-26,1,18, -4,36,27,-12,-11,17,35,60,33,-1,8,-22,-7,-31,-28,0,-38,-14,-38,16,-15,-64,3,-18,17,-35,-29,1,-43,8,-51,5,-21,31,-40,-18,-1,-37,-40,-5,-11,30,-10,-19,39,27,-18,3,-61,-3,21,-24,-14,-68,-68,12,-7,10,-31,7,36,-11,-10,24, 
  /* [33][0][][] */ -26,-116,39,-52,43,0,-11,-74,-3,28,25,12,-9,22,-7,10,-97,-79,-91,-33,6,-27,-3,-5,60,-17,-104,-74,18,-3,-45,39,21,-45,29,-73,60,-2,33,-45,-20,2,-23,-29,36,-62,8,1,40,7,10,-79,2,127,-33,23,92,-33,-16,35,6,36,31,-59, -25,-83,10,-90,-60,31,33,31,30,-25,-26,-16,-19,16,26,2,35,-11,-23,37,26,12,40,-61,-14,16,24,-21,-92,-16,4,-12,4,-26,-10,-32,-33,-18,-26,-43,-22,-67,64,-37,-26,-25,34,-2,7,-17,4,-59,21,6,0,2,46,13,34,-15,44,-7,-39,-61, -46,1,56,-46,3,29,-2,-12,39,12,-44,31,-15,-9,0,-26,9,-36,19,-5,-18,10,15,-33,5,12,3,40,-59,12,-38,51,-22,-9,12,17,-11,-27,2,-51,-53,-52,38,-49,-26,3,-10,4,31,0,-11,12,-13,32,-2,12,70,67,9,11,67,31,-28,-42, 
  /* [34][0][][] */ -6,-29,19,-22,18,-22,-18,47,-34,9,37,0,28,4,-65,34,-14,72,9,-43,57,12,-22,-60,-27,-14,-5,-14,-64,-12,7,-26,65,66,-43,44,15,-56,-1,8,53,-12,19,-16,-21,-38,40,12,38,7,27,23,102,-40,2,-28,31,-52,49,78,65,36,-39,-19, -9,6,15,17,0,-28,13,24,81,19,26,17,29,-61,-46,49,-51,-24,2,10,-38,-9,-57,-52,-3,-2,-33,19,3,15,-97,-24,-20,-40,13,34,-68,-48,-50,-46,52,26,-63,11,34,22,-15,-5,79,-17,26,-4,-3,48,4,53,64,55,-7,2,-30,30,-19,0, -45,4,4,35,-54,21,30,-2,30,16,-18,25,21,-55,-33,71,-17,-15,7,34,-69,-59,-41,-50,5,11,-40,30,11,54,-68,-40,44,-36,-36,80,-33,-57,-127,-29,-10,5,-99,-39,-22,49,7,-2,6,-19,9,-20,-31,16,-63,36,19,7,-46,5,-61,-42,-13,-21, 
  /* [35][0][][] */ 6,2,36,-24,29,-19,-29,-17,64,-28,21,-8,0,-11,-41,59,-40,-4,75,-1,4,-8,12,-107,-2,-7,-18,4,-31,34,4,-69,24,-37,-80,53,39,-43,-113,-10,14,1,19,-11,11,-13,29,-3,-14,-50,-20,-1,42,-32,-30,-12,87,-14,-19,6,32,2,-47,33, -14,3,-11,-34,22,28,-29,36,-10,23,-7,59,21,-25,-92,24,1,29,30,-44,-69,-45,87,-35,-44,8,7,-15,-11,-13,23,-51,4,-10,-119,-21,18,-49,-76,-39,72,46,4,-13,-13,-25,-44,9,2,32,48,6,-6,-58,-16,28,44,3,-11,20,27,-17,12,-7, 15,9,51,-68,24,16,8,38,-23,-4,-24,33,39,3,-5,-1,-4,25,-18,-14,-83,-89,27,0,-14,1,-20,-33,-29,5,16,-81,-33,-7,-73,12,44,-97,-127,-30,55,3,-38,-11,-47,-7,-30,6,10,39,58,34,0,-68,-34,30,59,16,53,19,57,-10,-17,-5, 
  /* [36][0][][] */ 11,-51,-27,-40,19,-67,5,-19,-36,-13,2,-63,-27,-43,8,-16,-58,18,41,15,-41,-35,-56,-29,-34,-11,-48,-1,12,-70,-23,-50,-10,-15,-16,20,-32,-32,-7,-30,-7,-43,-7,7,-22,-77,-90,18,-10,-32,6,-35,-54,-1,48,-27,-7,-40,10,-13,-14,18,-37,-25, -89,-14,10,-33,-76,-83,-41,11,-70,-87,-71,31,-58,30,-73,-14,-47,-43,-20,21,-30,11,-9,42,-22,-6,-42,-40,-16,19,-13,5,-57,-50,-96,6,-38,-12,-51,13,-24,-34,-127,-16,-47,-38,-56,18,-21,58,-57,-96,-35,-18,-36,-22,-44,-53,-8,-9,-33,-19,26,-5, -84,0,14,-8,-60,-79,-34,-54,-41,-55,-82,-40,-36,-10,-24,8,-69,-8,-39,-6,-80,-73,-23,-19,-26,-39,-30,-12,-64,-10,-78,-38,-55,-11,-77,-28,-13,-10,-39,-19,-30,-11,-26,19,-20,-21,-81,-16,-95,-10,-54,-107,12,-41,-74,-17,-50,-59,-62,-29,-54,-21,32,-11, 
  /* [37][0][][] */ -28,-14,34,-19,13,-11,-8,-37,38,-4,-49,6,38,-18,-86,-31,1,26,-23,-127,-17,20,-39,87,-18,23,27,-96,2,1,-42,-19,5,16,89,64,-90,2,11,-1,34,-33,13,-21,-10,-21,-87,6,-26,-2,-31,48,-12,44,-19,-9,-53,20,14,20,10,-23,-37,-7, -35,11,1,-30,-5,-4,-26,-82,20,-5,-62,8,36,-53,-47,-70,4,50,-9,-121,-6,16,-31,50,-41,34,11,-26,16,-66,24,-57,20,-11,60,71,-5,-35,-16,64,14,-13,29,8,0,-30,-94,-3,-27,4,-86,13,8,28,-1,-40,-52,5,-37,6,31,1,-37,-8, -6,16,18,12,34,38,10,-38,44,9,-9,0,19,-2,-27,-83,-13,41,6,-66,11,-8,-36,42,-7,10,-15,11,27,-36,21,72,22,-54,5,87,-54,-5,-28,39,30,-40,60,11,-39,8,-65,-1,-33,-12,-42,16,-59,78,-66,-60,-97,38,6,21,3,2,-29,8, 
  /* [38][0][][] */ -34,1,-18,38,-17,-1,-12,-28,-31,42,35,45,9,14,-20,-37,26,32,-16,-66,-10,-9,88,127,40,30,40,-54,21,-101,29,17,-89,-97,-4,-10,46,-29,-2,-83,38,52,32,-16,33,-13,-86,-13,-22,50,-78,-52,14,71,3,-21,-37,26,10,-38,-30,47,-43,12, 28,-31,-61,-3,-21,8,-14,-49,-62,-18,-7,-9,-58,-29,-49,-44,-18,15,-18,-70,17,-72,43,108,27,22,31,-26,13,12,14,-32,-26,-45,-8,-28,3,6,0,-48,76,12,-3,0,-38,-2,-84,6,-80,27,-68,-12,-4,6,-2,-5,19,14,-21,-24,14,-23,-6,-7, -38,-1,-92,10,5,-21,-12,13,28,-21,36,61,-105,27,-51,-32,-1,-20,-48,-56,30,-38,33,12,-30,-37,-46,-105,30,-86,30,52,14,-51,-22,52,44,-34,-9,7,2,2,-19,16,24,-26,-40,4,-7,40,-54,-67,-18,-11,-7,-14,-15,-39,13,-29,-4,1,6,-19, 
  /* [39][0][][] */ -32,6,59,-79,-24,26,-53,22,45,34,-27,19,37,-22,7,-50,11,10,2,44,2,11,-3,-95,-74,11,12,-14,-48,-72,2,-19,-15,-23,7,40,1,-126,-2,-117,-33,1,26,13,36,-120,-94,7,-1,39,-58,7,24,-58,7,23,-36,22,28,-38,-3,23,-92,14, -104,10,41,-111,-23,-15,-97,-9,23,9,-14,27,54,-67,-22,-41,-27,-17,-19,37,-13,-26,45,-26,8,-12,11,-8,-29,12,-20,-30,-3,-25,9,-6,-14,-13,-5,-72,-5,-30,1,-5,-4,-77,-69,-4,-15,1,-48,13,-9,51,-19,-9,-44,-1,-17,-30,-17,-25,-71,62, -9,-19,52,-100,9,-24,-127,21,12,-2,27,30,64,-73,-31,-6,-19,13,-21,-4,2,47,-93,-54,49,16,0,7,-50,-77,-11,-28,3,-7,30,19,19,-44,1,-31,14,10,4,3,16,-61,-4,4,28,36,-39,11,5,14,8,-12,4,44,-19,-42,13,2,-127,24, 
  /* [40][0][][] */ 7,2,10,-46,-52,-59,-13,29,-10,-47,-119,-25,-43,-16,-40,-22,-22,-95,-52,-6,10,-15,-17,5,-46,59,-11,-23,-18,-29,-67,-38,23,3,9,-93,-6,-20,4,-11,-19,-2,-8,-27,-12,-17,13,-12,61,43,-30,-18,49,-4,-24,33,74,-10,-22,-12,2,31,-22,75, -20,12,-27,-15,-20,-73,-49,21,-10,-59,-45,32,-33,-43,10,12,-52,-80,-49,8,7,-29,-84,-47,41,-14,-9,9,-81,-9,-95,-33,31,-45,45,-58,-1,22,-4,0,-27,-15,-50,-79,-65,-36,68,-17,-34,55,42,-1,2,35,-31,-21,-3,-56,-38,-36,22,16,-10,39, -10,69,42,64,-103,-18,-52,13,-14,-41,-127,44,-39,-55,-22,9,-19,-104,-97,-17,-10,-100,-16,-42,7,15,46,-7,51,29,-98,-3,7,-23,-26,-16,-43,-2,8,17,8,-58,-3,-43,-63,-5,5,3,10,29,-23,27,-7,37,4,-93,11,1,-44,-20,-33,-39,16,-21, 
  /* [41][0][][] */ -5,2,-25,30,61,43,-18,-24,2,19,32,-2,-66,23,67,-25,18,59,2,-40,-1,7,-19,-37,1,4,-17,42,-23,-32,29,35,-65,-7,44,13,-44,-127,26,-10,-25,19,28,-62,-34,24,-12,2,-1,23,-22,-25,13,-61,43,30,-45,-2,39,-34,5,23,13,13, -18,-17,-28,12,13,18,-29,-34,13,2,24,-2,-30,37,42,-11,30,19,-7,-41,-21,-22,6,-62,-59,-13,-40,20,-5,-55,19,1,-64,41,-6,21,-86,-121,9,18,9,36,-4,-55,-13,16,5,-3,-11,-33,45,-27,-35,-14,35,-29,-48,-5,-15,-21,10,-43,-5,-93, -4,-18,-28,46,8,31,-64,-16,53,-37,45,15,3,26,50,-44,-3,27,-57,-28,17,44,-100,-40,-27,16,-58,-2,5,-55,29,20,-28,46,-7,46,-3,-86,16,34,-50,43,3,16,59,19,3,4,49,-7,37,-52,-6,-22,34,-31,-47,-9,23,-20,-22,-22,6,-30, 
  /* [42][0][][] */ -101,-18,-7,-12,-47,-8,2,42,-30,-81,14,-50,-27,-42,15,9,21,-73,4,15,-25,39,-33,26,-2,-8,-12,5,3,-52,-15,15,-32,-62,-31,-2,-19,-68,32,25,5,-48,-70,-8,-20,9,-9,5,20,-55,-85,-21,-81,3,-1,-15,-24,52,-31,23,-39,-36,-2,-34, -64,1,45,24,-13,-17,-9,15,-9,-22,31,-14,-36,-46,14,-46,-34,-103,51,45,-19,29,-90,34,-12,-33,-60,14,21,28,6,103,23,-62,-127,9,-37,-64,24,-5,-70,-40,-53,-2,-28,5,-32,-2,59,-26,-24,-28,-78,-21,41,-30,-22,10,0,-7,-48,36,24,-51, -36,5,57,39,-23,3,-14,23,24,-12,5,-4,-58,-52,31,-23,-28,-30,5,26,-71,19,-118,-12,-80,-30,-91,35,15,49,7,43,23,-23,-92,4,-14,-57,0,46,-24,30,-37,5,52,-6,-25,-9,-48,-38,-14,-58,-47,-13,-16,7,-28,11,-86,10,-51,7,23,-37, 
  /* [43][0][][] */ 3,-5,74,21,-11,-42,4,-25,16,-66,45,-31,3,-33,-15,54,-47,-16,20,20,-29,-4,-67,-50,-22,-24,-51,3,-51,34,-99,42,11,-35,-19,-32,-47,-18,9,-52,48,-21,-8,-20,-28,21,29,13,-12,-24,7,12,16,11,4,-23,14,47,-19,7,-41,-24,-29,-82, 5,-3,21,8,-8,-13,-16,55,20,-78,24,25,5,-64,5,27,-48,37,-5,19,2,-19,-42,-26,-22,-14,-31,5,-38,-28,-65,51,6,-8,17,-8,-32,-8,24,-6,64,30,-12,-18,-2,32,-12,2,-3,-17,-24,9,-17,-7,-15,-41,-45,-5,33,26,25,20,-26,-127, 25,-7,88,6,-6,-64,20,31,43,8,19,13,13,-22,3,10,-15,40,7,-23,18,-34,-21,-30,-6,33,19,-6,-72,7,-92,53,-15,-27,21,-32,-39,-39,16,-39,8,46,11,-45,-4,12,-21,0,27,-39,-2,-8,12,20,-24,-69,13,36,58,19,-27,14,-32,-27, 
  /* [44][0][][] */ 29,-31,12,16,-107,-7,-17,11,9,-5,-93,13,40,-31,33,-2,-21,-24,-96,4,-11,-43,7,65,18,9,31,-8,-28,9,-44,49,23,-19,28,-15,-11,38,18,1,24,-2,-42,4,-70,-47,-6,10,48,29,-12,3,-2,57,7,-70,60,-97,14,-41,-16,-14,-60,127, -11,-28,2,25,-58,-18,-25,-16,-26,-20,-105,-37,8,-10,9,-17,-28,11,-79,-32,-19,-61,10,27,-13,3,17,-14,-35,17,-48,8,27,-4,4,9,-53,-2,-20,-4,-9,-55,-26,-95,-124,-44,-15,6,-21,-18,0,-24,2,14,-18,-19,-13,-66,-57,-31,-42,-22,-69,77, -11,-24,12,27,-91,-2,-42,20,-84,27,-103,15,0,-17,11,25,-30,9,-81,-34,-19,-46,30,7,6,18,22,-28,-15,32,-90,-1,1,17,9,-55,-18,32,0,2,28,-95,0,-47,-73,3,-32,-11,-33,-29,-1,16,-5,47,-38,-40,-10,-44,-30,-20,21,-18,5,96, 
  /* [45][0][][] */ 38,-91,-42,-1,-55,-15,0,-98,-97,-21,38,22,-19,-3,-64,22,75,37,52,-44,49,25,60,5,-21,40,14,74,34,-5,20,-95,-18,-48,-14,2,-1,73,46,-8,-54,56,38,-4,57,-89,-7,-20,44,3,20,33,48,-44,58,18,39,-3,43,64,37,-20,52,-69, 1,-75,-2,17,-44,0,39,-79,-70,14,-2,-34,7,-77,-21,20,18,-43,22,-106,-2,-11,23,-56,-106,54,-25,44,29,-33,-28,-47,-26,-31,-43,-127,-9,49,7,-66,-66,57,-7,-3,-31,-91,7,-6,52,-52,-3,-25,1,-52,14,46,-7,-33,14,9,28,25,35,-45, 8,-63,12,-3,-39,18,20,-67,-4,14,23,23,-12,30,-58,8,55,28,56,-52,22,18,83,33,-75,68,28,27,52,-26,-13,72,36,16,20,-76,19,49,40,-18,-53,24,36,-79,-42,-93,-12,7,78,44,24,-4,-11,-53,49,12,64,-32,6,40,-7,-20,39,-31, 
  /* [46][0][][] */ -19,1,20,-40,24,-33,-23,-38,18,6,0,5,-14,13,-12,-20,-21,4,22,-17,-5,-12,-60,-50,6,-34,-47,7,-15,-20,20,-64,-2,12,2,-16,-12,-27,10,-2,10,0,0,14,18,-28,-16,4,-21,-6,16,-23,13,-9,9,39,-54,12,10,-1,24,-53,-33,-84, -33,-26,35,-30,-9,-34,-15,-8,-16,-33,-6,10,-3,29,-25,-17,-8,-26,4,-6,-4,-38,-53,-54,3,-1,-30,-46,-48,-53,13,-20,-16,4,-28,-8,-4,-21,-23,-12,-19,10,-16,-13,-14,-5,14,2,11,4,10,-59,7,18,-16,-3,-50,0,31,-12,-9,-27,-81,-17, 30,-64,19,-38,-2,12,-51,9,14,-44,-12,25,-34,23,11,-12,25,18,-43,-28,-2,54,-56,-36,23,-5,-61,-17,-127,31,22,23,-46,-23,13,27,27,5,8,-2,-7,67,1,31,35,-18,-2,-4,58,-5,9,-73,-7,-3,-10,11,41,0,32,-20,-15,-14,-96,-7, 
  /* [47][0][][] */ -17,-19,63,6,-7,-76,17,43,-11,-35,-27,42,-16,57,-48,16,-18,-83,40,-77,15,23,-90,-47,5,-31,-72,-2,-22,-26,-32,0,24,26,12,16,12,44,-35,4,-99,55,-11,23,-33,-17,15,2,55,-24,52,-54,12,37,-28,12,38,-37,25,-15,19,-21,-40,-61, 13,-52,-70,-46,-73,-49,-9,19,13,-50,-71,-15,-30,4,-31,0,-51,55,-9,-77,-25,3,-26,-59,-32,-37,-29,-4,-16,-2,-27,-2,-42,10,16,-42,-23,22,2,-14,-127,5,-18,-13,-69,-8,-13,15,48,-13,-4,-61,-12,9,-48,-16,-14,-56,-6,-33,-15,-27,-57,-24, -5,-20,10,-31,16,-106,23,-9,68,6,-21,14,29,18,-10,28,-70,34,-5,-28,-9,-2,-19,-57,-27,-37,-8,-22,-15,38,-55,-3,-43,23,47,48,6,33,-55,-20,-65,47,-4,-1,23,-1,-25,7,-20,-23,38,-30,-18,43,-92,-47,-67,40,-10,-58,-77,42,-106,-61, 
  /* [48][0][][] */ 26,-47,-9,-44,-43,-56,-51,-22,37,6,-112,-19,42,30,-33,-24,-44,-97,-87,22,-34,-9,40,52,-45,-7,5,-13,-34,-64,-127,3,-16,32,9,18,-90,-30,-30,-33,32,20,0,-7,19,-33,-30,4,96,-37,32,38,2,24,-12,11,-92,-2,22,-10,-67,-49,-3,-23, 37,-26,-52,0,-32,10,-36,-58,7,24,-23,-23,25,-10,-70,6,-32,27,-61,-113,-19,0,65,-23,-18,15,0,-58,-8,-8,3,-16,14,15,35,11,-18,1,17,-1,25,-13,37,-19,18,-13,-47,-5,-8,-46,35,34,-47,-19,46,-52,-75,12,-2,22,18,-45,37,-28, 10,19,26,-11,28,40,11,4,3,26,2,-9,-21,-55,-31,10,-5,-48,19,-84,2,38,-2,19,13,52,9,8,3,-12,-1,72,9,-91,13,11,-19,24,18,-5,2,-9,-5,-30,7,14,-22,-5,60,-5,-16,48,-52,16,32,-32,-6,31,5,-1,26,-49,-2,14, 
  /* [49][0][][] */ -34,15,2,-24,-40,-16,-29,-45,49,-38,8,-6,58,-73,10,-29,-15,-1,-26,-23,-5,-18,-1,10,38,-8,7,-55,12,46,-15,-18,-28,-105,16,24,28,-43,-7,-25,36,-32,-7,-20,43,-74,-45,-1,26,20,-29,11,-33,74,13,19,-21,19,20,-69,-13,27,11,24, 22,-32,20,-127,5,43,-68,-55,10,-10,31,0,7,-20,15,-38,-47,9,-95,-36,-21,45,28,52,49,-23,-27,29,-35,-6,1,-17,31,-3,14,47,29,-1,-6,-45,-51,74,-3,19,52,-69,-10,3,43,-65,-35,35,-29,-62,25,49,-20,-13,22,-24,29,42,-8,-101, 24,-84,-28,-100,-72,14,40,-89,-50,17,-81,-5,-39,-15,43,36,-31,38,5,11,-2,-113,8,-2,-19,-4,-10,57,-72,33,-64,-6,-9,33,17,-2,-52,53,33,-16,14,-2,45,-108,5,6,17,-10,8,-27,51,51,12,62,18,-15,26,-85,21,11,69,44,69,-115, 
  /* [50][0][][] */ 17,-70,-19,-29,28,-32,-43,-35,-15,-21,-17,-7,9,8,50,-4,-22,-66,38,-64,51,-92,-38,64,-33,-9,23,-14,25,10,-27,31,-33,-12,-25,-23,37,-29,11,-26,-29,68,-78,15,-28,-72,-1,4,60,71,3,40,33,14,-2,13,35,-45,35,-53,-7,-42,-25,60, 34,-45,-38,-14,35,-54,-72,54,2,-34,29,-88,63,17,-25,29,-14,-75,22,-48,-7,54,-30,36,21,-12,33,-13,-53,35,-20,-19,-36,25,5,30,-17,12,-13,23,-31,-6,-83,-94,-100,-63,30,5,-52,-41,-10,-4,33,11,2,34,3,39,42,-4,-43,-45,-67,-13, -57,15,66,-37,-70,-127,-68,7,-58,-7,-108,61,-52,-49,10,-13,-55,-26,-74,-11,-43,19,-2,-51,20,-23,22,6,-48,13,-74,27,-2,-6,13,-94,30,-14,-12,-12,1,-21,-41,-63,-116,-14,6,-11,8,-50,1,8,-18,28,-32,-50,91,-67,-29,-55,7,-64,-36,8, 
  /* [51][0][][] */ 51,-77,-12,0,-48,39,31,9,4,7,4,-22,52,-11,39,52,49,64,12,-30,-22,36,-5,60,-80,-6,7,9,-85,-20,11,-31,-18,30,18,55,71,-8,4,2,25,-16,61,3,-29,11,23,3,52,1,-19,18,41,-110,20,-9,48,34,6,13,20,16,-71,-85, -17,-92,-29,-18,-59,-13,-1,-44,12,1,20,-69,11,-1,9,-20,10,62,12,-22,-21,45,-41,14,-93,36,-13,13,-76,-27,-11,-17,-40,29,-37,23,27,-16,-17,-52,-4,-42,38,-29,-46,-13,-25,5,12,-16,7,17,60,-5,-4,-79,-20,-6,-50,-8,29,-1,-27,-50, -4,-78,47,6,-106,39,-12,-1,11,-5,-14,-65,49,3,19,-10,39,22,-16,17,-8,23,52,32,-100,112,59,33,-127,21,-7,-91,-29,29,36,-12,51,19,-40,-48,10,-3,10,-66,-86,11,-7,-2,-3,-68,-17,29,61,-59,8,-56,-40,8,26,-39,22,7,-48,-96, 
  /* [52][0][][] */ -47,-21,-21,-9,13,22,29,-32,-7,34,-47,-33,2,-23,-127,-10,10,-12,-40,9,-5,5,12,-52,2,25,18,-65,13,-6,1,-45,16,0,-33,36,-57,46,20,3,4,-2,0,-10,-76,5,-10,4,-5,-55,-21,0,33,6,43,-39,-6,-31,16,21,-29,-41,-14,-20, -31,-5,-9,-12,-2,-36,-23,-39,-12,12,-54,6,38,21,-117,3,-7,17,-68,-75,28,36,-41,-75,-16,-23,14,-73,7,-6,-23,-17,-33,-39,-16,0,-98,32,58,-72,7,27,30,-76,-26,-17,-9,0,32,-11,-41,28,23,-19,51,-64,1,-1,-1,28,0,-54,-39,22, 5,8,-6,17,4,17,-6,-56,-12,15,-74,9,21,-28,-83,-7,11,32,-10,-50,12,-6,15,15,9,39,-7,5,22,-51,11,72,33,-74,28,20,-75,22,26,2,23,-12,5,-22,-46,12,-39,4,11,1,-32,9,-38,35,40,-56,14,6,37,6,-20,10,-22,4, 
  /* [53][0][][] */ 38,-11,-110,-14,-12,-44,-29,-69,-87,-64,25,-7,-37,-32,32,-41,-36,-50,-70,56,-32,8,4,14,39,-38,-8,37,25,-7,-4,1,-41,-12,-117,43,-43,-46,-97,-108,7,-76,-71,-74,68,16,-10,21,-76,-34,19,-73,-59,67,-6,-71,34,-42,-15,-96,-95,-93,-27,-28, -88,19,31,-34,-77,-64,-73,11,-110,43,-64,-13,16,0,-17,-85,-46,34,50,16,-116,7,-31,-50,-96,-86,-62,-33,-81,-89,34,-65,-53,-74,-124,-86,-12,-29,-87,-47,36,-63,-84,-92,-26,-62,13,-12,-33,-28,-82,-16,-46,-88,-66,-115,-46,-127,-72,20,-71,-35,-2,17, -40,-36,-33,-26,5,-39,-25,26,-75,-2,-45,-5,-36,-75,8,13,-102,33,-61,-4,-125,-33,-56,-46,-29,-3,-87,-44,-17,-35,-50,-16,-12,-3,42,-47,40,-40,-69,-72,-86,34,34,-36,36,11,-59,66,40,-35,-34,-1,-65,-76,-93,-32,15,-65,21,-35,30,-103,-33,-97, 
  /* [54][0][][] */ 29,5,-4,9,16,8,7,-33,-8,44,5,25,-11,-19,-54,-10,27,15,-10,3,-28,20,-37,2,-127,5,-29,2,2,-46,22,-85,24,-30,-13,6,21,-30,-24,-18,-8,44,-8,1,22,-15,4,5,-3,16,12,21,23,11,-49,28,19,14,43,3,-23,13,-2,-16, 1,-4,-4,-16,1,0,-9,24,-14,34,17,0,-3,-31,-12,-23,5,-17,4,23,-19,20,-43,-17,-21,11,-34,20,-19,-45,-2,-38,-31,21,-13,-4,4,-29,-33,-13,-33,1,17,-6,-24,1,4,9,-32,-11,3,-10,3,-10,-41,29,15,27,-12,-4,-14,-19,-20,-19, -45,6,-20,-10,24,3,-27,-16,15,0,-7,8,-12,5,-27,-50,7,4,11,-69,-45,4,-22,3,8,-24,6,-12,8,-38,10,-28,3,32,-21,-11,11,34,-43,-1,-31,2,33,-14,-16,-15,-72,8,-35,-6,-22,-15,-25,22,-83,-20,-71,-36,-22,27,-3,-48,1,-7, 
  /* [55][0][][] */ 9,-26,29,8,1,-15,-7,-3,-26,41,8,-18,-20,2,-50,37,15,33,78,5,-5,44,20,40,49,14,45,29,-7,13,46,-70,34,-15,33,51,-1,31,16,21,-30,-19,4,9,-8,-107,-16,-11,10,25,-11,29,13,-17,-10,-32,0,-2,17,24,-1,-27,21,37, 19,-21,8,-35,15,-35,-30,-50,-14,40,15,0,-15,-17,-63,18,-6,-15,21,-74,0,54,-20,20,-29,44,24,-24,1,-29,5,-82,12,-15,21,50,12,0,10,-10,-37,-28,12,3,-2,-127,-20,6,19,36,7,-7,-11,-27,-36,-26,-49,-17,-13,5,11,-48,21,16, -33,-24,-30,-25,-17,-26,-44,-39,-15,40,-18,-7,1,25,-17,11,44,9,33,-53,5,10,13,26,43,32,34,-32,-15,7,13,-20,12,10,12,48,22,36,0,9,7,-15,35,-67,2,-126,-22,5,-8,41,2,1,15,37,-43,-23,11,5,26,29,55,-16,13,30, 
  /* [56][0][][] */ -44,-52,32,-6,-107,-36,-32,26,-12,-97,-18,-36,-39,50,4,-1,61,14,67,-110,22,40,-118,-36,-15,-5,65,-4,-14,-7,37,-17,-15,-13,-22,-1,43,8,3,24,-9,27,-8,33,-11,-23,38,2,-16,-44,0,32,36,-102,30,19,-10,13,-10,-59,-8,-49,-68,-127, -9,-37,79,4,-88,-91,-58,20,10,-68,-36,7,-73,35,-3,-19,18,-2,67,-33,17,30,-37,-40,-26,8,42,-36,-72,-5,-2,39,-53,-44,2,-15,37,-2,31,25,-7,41,7,-55,-13,-63,26,13,14,-23,22,-11,45,-93,26,-21,11,-35,-29,-15,-15,-8,-71,-29, -38,-3,61,34,-47,-13,-8,58,31,-60,-83,14,-38,36,-55,-33,26,21,11,-53,-25,-26,22,11,-98,13,19,-48,9,4,-25,-7,-38,-25,-35,-13,31,-56,-28,-20,28,32,-18,14,14,10,34,-3,-8,32,11,-20,26,-24,-9,6,6,-8,29,-49,-33,46,-46,-30, 
  /* [57][0][][] */ 25,-27,-59,-21,-84,-37,1,3,-50,-10,-1,-4,14,14,19,-2,-33,7,-39,40,-8,44,-56,-54,-22,39,-40,22,-21,27,-74,-101,51,-11,0,-11,73,-5,-81,8,-9,-16,-13,-74,-81,-46,44,-1,-36,-92,-2,7,33,29,-48,45,10,-37,23,-8,51,2,-28,-20, 35,-109,-94,-90,-122,-55,-13,-9,-42,25,-13,57,-21,-96,-16,17,2,-107,-34,-3,12,-64,-26,56,1,37,24,13,-97,-2,-127,29,-42,-21,-35,-41,36,27,-29,-91,0,-81,-60,-124,-117,-42,27,-15,90,43,-32,9,43,112,-30,61,-75,-45,81,-28,77,-9,-47,-14, 25,-38,7,-47,-27,6,-47,-22,-41,5,0,7,-33,-13,-72,34,29,-75,-70,35,-6,7,-50,-116,0,74,39,-3,-75,51,-44,-21,21,-16,18,-46,95,4,7,-29,-29,7,-30,-89,0,-63,39,-6,39,6,6,11,42,29,16,31,18,11,-2,-59,85,43,-25,-72, 
  /* [58][0][][] */ -92,31,53,3,-40,-47,3,-67,49,24,12,-32,-52,-34,-73,-10,-57,-41,25,7,-3,18,-63,50,44,44,-95,23,-42,-9,-23,-3,-12,35,-70,-32,50,-55,-49,43,1,-83,-25,27,-43,-45,-53,47,-39,-70,68,42,-46,2,-31,27,-70,-57,42,-48,-39,-14,-80,-48, 1,-98,-33,5,-86,-24,-1,9,-100,-54,26,-6,-83,-42,-127,-8,10,-33,-13,-74,-45,-20,-18,-56,-61,-125,-82,-26,-3,-21,29,-32,18,-31,-39,-24,-67,-88,-71,-32,-37,30,-9,11,21,-48,-66,48,4,-65,16,-95,-107,-13,-75,29,-75,-68,-32,-30,-107,-53,29,-12, -43,27,-28,-76,-68,1,38,-35,13,-45,-38,-79,56,39,-20,-94,-62,20,-12,-64,33,62,29,41,-97,-106,-40,0,-23,13,-45,35,-14,-30,-84,25,21,39,-23,-103,-60,-64,-22,-88,27,-73,-40,51,6,41,-5,-53,-81,19,-49,-83,-19,27,-97,34,22,-27,-7,-24, 
  /* [59][0][][] */ -35,-18,28,-56,24,-35,-17,18,7,31,14,-7,-45,0,49,-109,-32,-40,33,-80,-17,49,10,46,-70,-70,-56,-11,-59,-4,15,31,-38,-98,-82,-6,-35,-33,11,-67,32,-17,23,-36,-71,-33,-34,25,30,-73,-70,-103,-110,-26,-108,-127,1,-10,21,28,-53,25,-48,-69, -70,-38,-54,-11,39,-67,-55,34,-51,-35,-26,-55,20,-6,38,-53,-10,-55,-79,-3,7,-59,-81,37,-81,30,-82,-1,3,-82,-16,-52,-18,-106,-36,-55,-89,-52,-80,25,-28,-59,39,-53,-7,-89,-11,44,6,-96,-60,-60,12,-57,-99,-43,5,13,-104,-3,-97,-74,-63,-54, -97,-86,-41,-6,16,-4,-86,-34,-104,-50,-39,-38,9,-19,39,22,-87,-89,-9,-24,-93,-78,60,-47,-33,-73,-85,-50,-31,-74,-19,-3,-32,-109,14,21,20,12,-91,-109,36,-23,-3,16,-67,6,-87,-24,-29,60,-76,-16,-121,11,-2,33,-72,-72,-30,-94,1,-86,-14,26, 
  /* [60][0][][] */ -24,0,-8,52,-6,18,0,-34,-28,-25,62,-25,0,61,50,-79,21,3,31,3,23,17,-18,55,-16,12,-17,20,16,-36,29,10,-86,-4,10,14,-48,-73,16,-22,-6,18,37,-35,0,13,-14,-16,4,-11,-4,18,10,-39,8,42,-127,-35,42,-125,6,12,0,37, 9,-15,-42,39,-18,1,-15,-27,-27,-34,23,-8,-14,33,24,-23,25,-33,-9,-10,6,-8,26,2,-35,5,-19,16,-7,-74,13,-21,-97,20,-23,-25,-55,-75,14,-3,-2,-36,18,-56,-30,-7,19,-9,-7,-18,32,1,-30,25,1,-16,-124,-49,-23,-94,-41,-41,14,-97, 30,-25,-100,40,-1,24,-16,51,31,-35,69,15,7,33,20,-78,3,-43,-72,26,15,62,-16,-14,-23,31,-6,-13,30,-74,24,-8,21,35,-15,56,-9,-65,5,34,-27,-4,39,-6,73,15,-20,7,-24,-12,18,-45,12,0,41,2,-55,-25,23,-69,-18,-18,15,-12, 
  /* [61][0][][] */ -15,-12,25,7,-18,-16,9,-37,-33,-8,11,31,-4,-20,41,-4,-21,29,26,51,7,1,-19,41,20,-18,-68,-37,-17,-12,-6,-36,-64,-7,-54,17,49,-27,34,-12,-41,-13,-8,-30,0,-20,-127,-12,25,32,-39,-78,17,5,-24,11,-109,31,8,-26,21,28,-23,48, -7,-16,-3,-12,12,-26,-73,8,-16,27,16,-6,-44,-106,-56,-12,12,24,-22,-23,-11,62,-2,-74,31,26,-4,-48,-2,1,40,-27,47,-30,0,-52,51,-29,33,10,5,72,29,-7,35,-35,20,-18,-27,-7,-25,35,-4,92,17,16,-41,5,-55,20,29,-14,33,26, -19,-33,27,-114,-26,-25,-5,24,-57,12,-26,21,-20,-33,-19,17,11,-13,-6,-59,-12,-62,11,-51,31,64,-4,-29,-94,50,-7,-86,14,-33,-114,13,65,-31,-8,-5,64,-8,10,-7,4,-55,-13,-12,3,-8,-16,20,21,22,3,4,0,-19,18,-4,67,69,-42,7, 
  /* [62][0][][] */ 28,-81,14,47,35,-81,-6,-56,20,50,-2,-42,17,-78,-77,-57,-15,22,-59,5,16,-38,67,-43,21,-76,-59,-11,56,-68,13,-5,26,47,-34,19,-24,-7,55,19,51,41,-50,-51,-27,16,-78,-45,-16,-49,5,22,-36,46,-6,-82,-51,57,12,-70,-72,-2,-20,32, -25,-65,-45,49,-26,-58,10,20,14,26,-28,22,3,-81,18,-110,42,1,-69,6,-19,-77,-25,13,-14,-47,-43,-24,-25,-46,-71,1,-48,-57,-66,-8,46,-53,-14,-30,-57,-78,-70,8,-15,-73,-50,27,-19,-15,-81,-50,-98,5,-112,-13,-48,-41,-13,64,-2,-69,55,-45, -4,-106,6,-62,-82,45,-109,-10,11,-46,-98,-27,32,4,23,-22,-60,29,-31,8,33,21,54,-65,22,-3,-19,-13,-42,-33,-70,-7,-44,13,-26,-26,39,-69,-89,3,9,-51,-82,-67,-91,-66,16,77,-70,-60,26,17,-103,-32,-16,-127,-8,-57,-27,8,-40,19,4,-74, 
  /* [63][0][][] */ -15,-28,16,9,-61,-18,-7,28,1,-26,-28,-12,-15,-48,12,27,-15,-22,5,1,8,-3,27,-17,10,-32,32,-21,4,18,6,18,-12,-48,-7,-21,9,65,27,17,-18,-44,-17,-37,-13,-22,4,-8,10,-68,-48,-6,-34,-28,22,-78,-19,-25,-32,-11,-23,-13,26,-127, -21,-6,-25,-20,-8,-12,7,28,-18,45,27,0,-22,2,9,-59,16,-24,23,13,-9,39,-1,25,27,-39,-10,1,2,-34,-6,18,-18,-3,-50,-33,-33,-16,7,-19,-40,-75,-28,12,-11,-2,-28,1,32,16,7,-38,-15,-22,25,31,-9,35,2,-47,0,24,2,-29, 5,16,2,22,9,-23,7,-21,-21,-2,8,6,-4,6,31,-17,-25,14,28,17,-15,13,-14,-14,18,-5,-30,31,5,-1,-34,-5,-9,13,-79,-11,-26,-22,-32,24,-10,6,-20,21,12,-15,3,0,21,25,17,-20,16,22,18,20,21,32,-2,-10,-11,-10,18,11, 
  /* [64][0][][] */ -98,-14,-16,-13,-22,22,-23,30,-46,-61,1,-73,-36,-44,38,16,24,-67,30,16,-57,-11,-58,15,4,-30,-4,30,9,-51,-14,5,-32,-66,-56,13,-18,9,-25,29,-86,-9,-64,-3,-23,5,34,10,-7,-103,-70,-6,-127,-6,-43,15,9,-5,-59,2,-61,-53,28,-8, -60,-16,41,9,-15,-25,-5,-37,-27,-38,35,-1,-8,-26,-19,-43,9,3,12,13,-71,9,-67,17,-51,-46,-32,17,15,6,27,-24,27,-42,-50,37,-40,-3,4,9,-70,4,-72,6,24,-10,-54,17,-11,-25,-77,2,-94,7,15,-10,14,6,5,-1,-67,22,5,7, -52,1,61,46,-32,-23,-33,-15,13,-26,4,39,-48,-61,40,13,-95,-31,21,46,-117,18,-28,2,-11,16,-96,12,16,64,33,-20,22,-40,-65,7,-13,-43,-3,41,-10,21,3,12,24,-2,-6,5,-23,-52,-25,-40,-126,4,-40,-18,-25,43,-82,1,-50,17,43,8, 
  /* [65][0][][] */ -15,-75,-34,-57,62,2,-3,-38,-1,21,-4,4,23,-10,-6,-12,-8,18,-31,-43,2,-54,30,61,-6,20,-75,-84,9,-36,-21,60,-13,-59,86,-10,-12,11,21,-37,26,21,7,-42,18,-13,5,-20,39,3,-30,-71,-24,-15,18,43,76,-10,48,35,32,30,-15,-15, -12,-111,-39,-52,76,-7,-20,-119,-22,47,-40,-5,41,-16,8,11,-21,23,-63,-30,0,-95,55,33,-64,-66,-37,-94,26,-9,-47,-3,46,-25,43,-58,-23,-14,7,-46,41,11,26,-41,-31,-2,9,-18,-16,-26,-29,24,-8,-61,-8,-5,28,-41,20,17,63,-2,3,-52, -58,-127,36,-32,20,-13,-32,-81,-9,61,-77,42,-36,-4,-6,7,-23,-31,-60,5,19,-106,69,56,9,-1,-47,-77,-17,-10,-59,34,18,-44,13,7,-4,-19,13,-80,60,34,78,-56,-5,-21,21,-4,33,-15,-4,-27,-9,-50,6,-18,63,-74,22,-4,57,74,-34,-65, 
  /* [66][0][][] */ -91,1,-54,-23,12,-15,-36,30,-7,-10,-48,-22,-44,-89,86,-65,-59,-50,23,30,-62,46,-22,101,-52,-11,-36,63,20,-4,-62,-13,14,-43,2,33,-22,-73,-92,56,9,-1,-65,37,-8,-26,-18,-12,24,42,-17,-28,-70,11,9,-14,29,-37,-20,10,-54,-30,-1,-107, -45,10,60,-33,17,20,6,12,53,29,13,15,23,-115,29,50,32,4,35,-21,-65,4,39,-25,16,0,14,4,-17,61,8,26,-71,14,-39,18,39,-56,-97,-4,78,61,-49,56,-34,-3,27,10,54,31,-20,-32,-5,36,31,-2,117,-35,-1,-77,43,-8,-35,-17, -8,21,-99,2,44,38,48,52,-25,49,-5,79,-25,-77,-3,35,-21,17,29,7,-60,-13,22,-57,-30,49,12,-5,14,77,-26,15,-3,3,-95,12,15,-99,-84,-10,73,-34,-27,5,33,29,15,2,64,42,21,35,-6,40,-12,-36,74,-41,1,47,9,-34,-13,-127, 
  /* [67][0][][] */ -7,-5,-42,-26,19,-9,1,28,-28,9,18,27,-6,-34,41,-40,-1,-10,18,4,7,-78,29,-6,-2,-42,-14,40,-72,35,4,-23,56,31,31,0,12,-29,-30,4,30,27,-33,27,-51,-12,-17,6,23,-26,-8,34,2,-9,51,-22,11,-35,-31,-9,34,14,9,69, 12,8,28,-62,-6,3,-13,13,-27,-15,-47,26,9,-28,19,-24,8,29,8,-39,13,-42,51,35,-25,-30,-21,4,-96,-11,-11,-20,-3,-8,32,-9,71,-65,-43,-9,2,37,-42,-2,-26,-35,-13,-7,4,-26,-20,14,35,-11,27,-45,18,-31,-1,-28,-14,5,15,17, 53,-10,-5,-40,-22,-34,2,29,-37,-35,3,-39,1,-48,28,9,43,-15,68,31,-9,41,24,-12,-70,-31,16,39,-127,23,-19,-50,-31,-10,63,-35,-1,8,19,-58,-8,-12,45,-39,-10,-24,8,-1,-13,3,-29,41,-21,-3,59,-41,-115,-43,-23,21,0,-6,48,-27, 
  /* [68][0][][] */ -38,-57,59,-67,-47,-99,49,-1,-1,-114,-60,-36,-25,2,-30,16,83,26,53,25,-19,-26,8,-22,-42,-20,59,39,-29,-10,35,23,60,0,9,37,-13,29,12,48,-4,53,9,-58,-59,40,-23,-1,-52,37,6,-66,7,30,-45,-38,29,-14,52,-4,-56,-43,-94,-20, -43,-54,43,-44,-69,-102,19,68,-32,-69,-127,-31,-104,11,0,43,-64,23,56,1,21,9,-4,-85,-20,-81,-17,-27,-30,35,-40,33,-61,-33,-8,-7,13,-5,56,26,-34,-51,6,-2,-98,16,18,-13,13,-6,36,-54,21,26,-73,-41,49,-19,27,-25,-46,-19,-119,62, 5,-7,0,-42,-101,-59,19,16,-31,-44,-70,10,-46,-3,-21,-3,4,50,88,-56,-5,4,2,-74,-38,-61,-46,-11,10,4,-10,37,-53,-11,1,-11,16,16,43,11,-23,-9,-17,-22,-40,21,-18,-15,-16,9,41,-49,17,32,-46,-5,65,49,-27,-17,-63,-2,-89,-56, 
  /* [69][0][][] */ -77,-40,-39,-16,-4,-37,-5,33,-26,31,-50,13,-69,36,-23,20,-37,-62,-78,-34,37,-56,26,-15,35,-39,-10,-57,19,-14,20,2,22,0,-78,-53,-53,-11,6,32,-41,-75,-15,37,14,5,76,-1,80,1,-69,-62,31,-14,0,14,53,-53,-24,16,-17,-101,-76,28, -36,-7,-29,8,-16,-28,-92,-34,-30,-9,0,11,36,-60,-83,26,-15,8,-70,-69,19,3,62,-10,27,6,-5,-38,27,-2,36,44,-16,-127,-57,-50,49,-3,7,-124,-82,17,-1,-26,13,-45,-48,5,43,13,-66,-88,32,-1,-5,16,14,-2,67,-60,9,2,5,16, 16,-14,36,3,-33,-5,-32,-75,-50,-11,-58,23,37,-19,-22,8,-49,-41,0,-53,-24,-34,4,-57,22,55,-16,-76,9,-117,28,16,20,-13,19,7,75,13,-35,-46,-62,10,-20,-6,40,-23,-35,0,-10,-23,6,-1,66,46,-44,14,-51,-31,76,-43,44,-3,17,-28, 
  /* [70][0][][] */ -64,-2,-31,22,23,-21,-17,-40,-80,-17,-2,-18,28,-55,52,-54,3,19,-32,17,-66,31,-55,-46,-120,17,-19,12,-12,-50,-3,-64,-40,18,-73,-18,-3,-102,-39,47,-89,4,27,-23,22,-28,4,-10,-31,-51,-43,3,20,22,-2,46,31,5,-47,9,-27,-19,54,-2, -8,-41,-5,-9,-24,28,-11,-32,-55,-19,8,7,57,-43,11,9,20,16,-13,2,-25,-5,22,28,51,-4,-17,-7,-17,-15,-13,13,-71,9,-16,-12,-30,13,-10,35,-86,0,-13,-17,1,-30,14,4,-31,-70,-2,21,31,-127,50,11,19,4,-1,-23,-49,-18,0,-102, 35,-32,35,45,31,7,-19,20,-40,-5,8,10,31,-45,37,-22,-18,0,-2,28,-3,-2,-44,-50,-29,49,-42,17,-43,19,-1,18,8,18,15,56,40,-12,-11,19,-34,85,10,22,-3,-2,21,5,-3,-13,-11,13,9,-79,30,-6,6,26,66,-62,-23,57,-1,-104, 
  /* [71][0][][] */ -14,44,-35,-11,3,43,-37,87,50,3,-64,-21,27,-6,-22,37,7,-34,-10,18,-42,42,8,8,-94,-37,43,-16,33,-23,-17,-89,4,13,-3,-20,6,22,-7,-33,-65,3,-3,-23,4,30,-15,21,-37,-80,0,-19,-7,-34,11,7,-49,4,40,-11,46,-62,-10,-58, 5,23,55,-68,-21,20,-68,8,22,-43,-21,-101,18,70,-63,33,0,-11,36,-126,41,20,9,-33,-52,-79,-16,-82,21,6,25,11,-24,-7,18,-14,10,29,5,-35,17,-19,-38,-57,-35,-27,-3,24,-37,-24,58,-22,47,-56,12,48,17,42,23,22,-5,-75,-12,-1, -35,-37,-24,-21,-29,-94,-50,20,29,-17,-19,51,-30,-4,50,-8,-51,2,46,-18,-44,-64,-22,-127,13,-27,-38,16,-55,48,-45,117,-79,18,25,41,36,-52,-3,-32,-59,32,16,-38,2,-44,-38,-13,92,-34,-1,-107,-13,41,-33,-28,-69,-56,-6,-11,-11,65,-88,-30, 
  /* [72][0][][] */ -2,-7,-23,0,1,-36,-91,-26,20,-2,-19,23,-39,-3,13,-19,-26,7,-37,-13,-9,-44,18,52,-5,48,-18,46,8,-31,4,19,15,-60,-5,-2,33,-14,-21,2,-43,25,-29,-18,41,-56,24,-1,-8,44,1,-52,3,-27,-55,-24,65,-70,12,10,57,-31,26,-110, -32,11,24,12,-14,9,-27,-6,23,20,9,44,-28,-48,-9,-25,-34,-23,-13,15,-18,8,10,66,-58,5,-68,37,35,-54,-11,30,0,-62,-60,-30,13,-44,-74,-2,-27,18,-46,-4,18,-6,-4,8,-10,23,-8,-32,-18,2,-20,52,89,26,10,-3,-4,13,3,-106, -2,9,10,-20,-23,3,-43,8,16,-18,-27,38,-14,-25,40,-13,-2,-29,-9,20,-15,4,-35,30,-72,-3,-28,48,24,-26,26,28,2,-17,-8,6,21,-45,-69,11,-28,37,-24,16,27,-20,2,11,-18,45,-15,-50,6,49,-37,33,57,17,26,-21,-32,2,2,-127, 
  /* [73][0][][] */ 47,-96,26,-79,-20,16,24,1,-16,3,14,1,39,-20,55,24,0,-12,-7,13,-1,12,17,29,-7,41,-25,21,-20,3,7,16,29,-28,32,-31,23,11,17,11,-63,37,-3,-19,-24,-70,70,-3,1,-48,53,37,12,-119,11,26,38,-12,49,3,-2,44,-56,-127, 1,-73,-33,-23,8,-15,-24,-13,7,9,-16,22,-1,-26,54,5,-13,-31,42,5,20,-28,-27,-29,-65,34,-8,17,-64,-39,-24,22,-8,-40,10,-29,0,-3,25,-22,-41,7,17,-63,-47,-37,30,10,-30,-14,23,31,-3,-88,7,26,51,-31,-4,11,-8,8,-39,-87, -4,-70,103,30,-30,45,-20,-11,7,33,-29,24,17,8,34,11,-9,13,1,23,31,-77,47,14,-43,54,15,51,-51,11,-32,-12,-17,-12,8,6,53,-1,6,2,-44,31,-16,-40,-55,-7,26,17,-6,12,40,24,44,-74,-15,30,76,7,7,-19,26,17,-40,-90, 
  /* [74][0][][] */ 8,-56,21,-60,10,-21,4,-53,-42,21,-4,-3,46,-37,-39,-5,13,5,-55,-13,-5,-37,52,15,45,27,6,-59,-95,-23,-17,-10,37,9,-25,-43,79,23,6,-26,10,6,-57,-1,-14,-64,-13,0,59,32,11,28,-9,12,-7,27,97,-13,32,-63,1,45,-18,10, -10,-65,-21,-61,-1,-24,6,23,-8,36,-25,-7,-3,-11,29,-23,2,36,-22,17,-3,-53,13,17,-27,7,31,-2,-83,-38,-17,-58,54,9,-22,-71,16,-3,-22,-9,-62,0,-42,-5,-8,-73,35,1,-25,-14,-5,-32,26,-35,-15,3,33,-5,10,-19,-8,-4,-46,-36, 6,16,40,-103,-10,-26,0,34,-48,28,-95,41,-69,-30,-4,11,27,41,-77,30,21,-71,22,-3,66,-29,17,-11,-127,-20,-23,16,-18,-32,39,-87,14,23,8,-24,-13,7,-20,-21,-20,-43,27,8,38,13,-1,-5,12,27,-13,13,35,-52,35,-8,14,-6,-3,-28, 
  /* [75][0][][] */ -36,8,-20,-1,28,13,21,-3,-19,-26,-10,14,14,-31,20,16,-1,-4,18,-7,-78,-21,-5,25,-23,-32,21,46,-1,49,-30,18,-2,-4,-10,-15,6,-127,-87,32,80,11,-35,19,6,26,-8,6,38,4,-9,-13,-3,-2,42,7,33,-20,-17,-18,-13,24,-6,-47, 12,-6,24,-2,7,-13,-13,14,-7,15,-13,15,23,-44,12,-17,-3,17,1,23,-79,-16,11,9,-33,15,3,1,22,41,-58,-40,24,-16,-8,-2,41,-79,-67,13,30,15,-6,3,11,-1,-32,-3,23,14,50,-22,-15,-8,5,-6,20,-22,-2,11,-24,-21,-4,-71, 12,36,14,-5,17,-5,-2,16,10,32,-28,21,-5,-10,15,-47,21,-10,-1,22,-87,10,21,-22,-12,34,2,-21,26,26,-10,-59,-5,-27,0,-27,22,-4,-70,12,-27,48,18,20,13,-22,-39,-11,43,37,42,-45,-22,21,-8,9,31,10,-5,-11,-33,-13,12,-17, 
  /* [76][0][][] */ -29,1,-5,-21,42,2,-2,-31,38,16,-3,-12,7,-12,-22,23,3,21,27,-3,-55,54,21,72,0,-40,22,13,-18,-5,-22,8,-11,-3,17,-8,-15,-127,-38,-9,24,-40,41,9,4,0,-48,-12,17,-20,-35,16,-32,12,-42,-49,-1,19,23,-89,-19,-10,-14,24, 12,4,-12,-22,18,18,1,9,5,28,4,20,11,-6,9,14,9,-8,-27,13,-59,4,16,41,-27,-14,32,17,-34,-8,-27,-42,21,25,7,8,-91,-96,-55,-55,-5,-22,33,-6,37,11,-29,-1,17,16,-7,0,-60,22,-7,-55,6,-16,-21,-54,-47,-6,-12,-42, -36,-2,9,-66,14,-9,0,11,-11,-28,-12,-40,5,-3,-49,19,-2,14,39,10,-26,47,-15,78,-18,-34,2,12,-12,-11,-14,2,-24,12,8,-17,-16,-70,-13,-27,-2,-53,42,-29,1,-20,-15,7,-32,-3,9,12,-10,10,-37,-20,-62,10,-55,-32,-2,-28,56,-32, 
  /* [77][0][][] */ 35,-22,-17,-34,-11,-2,-30,-23,-80,8,-15,23,-4,14,16,13,6,-28,48,-2,11,-6,-21,9,6,-45,27,34,-59,-8,-23,19,1,13,30,8,-3,24,38,-18,44,66,4,-10,19,0,-63,-8,13,36,-11,43,-15,22,-4,-10,19,20,-66,-65,-55,-27,-15,16, -6,3,-3,-88,-13,3,-39,-3,-66,-23,-3,-22,18,10,-27,0,7,-24,34,-39,10,16,-17,-18,-21,-49,-13,16,-127,-15,-10,-31,-31,26,-2,29,-16,21,10,17,33,20,-23,-75,-24,-28,-31,-10,6,-16,-33,13,16,-52,21,22,-29,0,12,-19,-11,-60,-15,-22, -52,40,-53,9,-92,4,9,11,-65,19,-25,10,6,-22,6,-10,24,-3,-50,-5,-41,20,-21,-64,-12,-19,-19,17,-44,-7,-62,36,-11,-24,-15,-38,-45,2,-72,-16,20,-61,-2,-59,-86,-3,-23,-2,-1,-8,-7,-38,1,34,-43,11,33,-22,-20,-22,-22,47,-37,9, 
  /* [78][0][][] */ -25,-2,70,-49,8,-14,-28,17,5,24,17,7,7,-50,-55,40,-29,12,9,-22,-3,14,-2,-117,9,42,-6,10,-56,-45,32,3,15,-10,-42,30,-4,-48,-81,-3,52,6,14,-49,-5,-10,35,0,13,-49,-19,49,34,18,-43,-32,37,16,22,38,43,-26,-51,12, -36,-14,65,-45,13,5,5,62,-37,-30,34,18,-2,-75,-53,16,-2,-5,37,-4,-58,-24,-22,-63,-47,2,-57,8,-123,27,8,6,-19,-25,-30,32,-21,-54,-111,-16,5,3,-9,0,-26,12,-47,-6,39,-24,-15,33,25,-15,3,-5,20,28,42,14,-5,18,-31,-15, 1,7,34,-51,13,-27,17,-8,-38,6,65,35,13,-15,-4,18,5,-7,15,15,-20,-6,25,6,-3,-12,-43,26,-127,17,-32,38,-8,14,3,25,-4,-40,-82,-27,-12,-13,4,-12,-40,15,-3,6,48,4,-9,30,5,-28,-10,30,29,0,19,55,41,-9,-27,16, 
  /* [79][0][][] */ 19,-4,-49,-1,22,-13,-5,13,-14,-18,-5,-21,13,-1,24,16,5,-62,-13,43,6,-1,4,-14,10,37,-13,29,23,-24,-48,27,-14,-29,35,-36,-6,-21,21,-13,-32,-18,-72,49,-11,4,12,7,-7,-20,3,-48,-21,48,82,37,10,8,-39,-13,-25,6,39,12, 2,-6,-35,33,16,-45,-13,36,-20,-10,-14,-10,10,-33,3,-28,7,-49,-44,49,8,15,-31,-12,11,20,-76,25,15,-9,-21,33,-54,-22,-38,6,9,6,25,-18,-78,12,-9,25,0,-10,2,11,69,-19,28,-68,-5,-33,32,17,44,26,25,-57,11,-5,4,-27, 1,-19,-11,41,-32,-104,-1,6,10,-62,3,-61,57,-96,-12,61,-13,-37,2,-11,-62,-38,-96,-7,-29,-52,-81,5,36,20,-56,-27,2,-18,13,7,-50,54,-9,-21,-69,-62,-92,-4,-53,3,2,-3,0,-51,-48,13,-80,21,-10,-29,-31,30,-37,46,-46,-22,-2,-127, 
  /* [80][0][][] */ 0,3,-97,-31,36,-102,-37,30,-59,21,29,-12,-24,20,30,-23,-7,13,10,49,20,-13,50,1,11,38,-31,33,-38,-27,18,42,-29,-61,-42,28,4,-4,10,-53,-14,-4,-24,21,-31,-12,-28,-10,-4,19,-18,-47,-25,-70,35,20,-39,0,21,-10,3,36,1,34, 22,-22,-24,-34,26,-127,-17,-15,-66,19,13,-51,10,6,0,-57,-12,31,1,-1,-1,-21,40,-10,5,51,-56,-25,-101,-16,25,11,-30,-76,-21,19,-38,-19,-9,-18,17,-42,-26,23,-38,-64,-27,-8,0,-42,-19,-56,22,-18,24,8,-37,-1,20,-24,-20,-20,10,14, -14,-18,-40,26,-1,-67,-5,21,-65,10,1,-15,-31,-2,10,-56,38,28,37,30,-15,-23,0,21,36,25,-50,-12,-83,-9,27,10,17,-77,-20,17,3,-11,-35,26,10,2,24,20,-8,-19,-12,11,-2,-50,-38,-15,-12,-29,1,9,-14,-10,39,-23,9,4,-5,24, 
  /* [81][0][][] */ -49,-62,46,-99,-121,51,16,-12,-9,-58,-8,30,25,63,20,38,44,-11,-8,-5,18,53,32,-43,3,5,8,16,-1,4,22,34,-56,3,-4,25,40,-17,5,17,-28,96,21,3,11,12,45,-2,-20,-42,11,6,16,18,16,-16,69,35,-19,37,40,-35,-99,-119, -18,-42,46,-39,-72,-4,25,13,0,-32,-32,24,-17,9,21,10,39,36,-12,31,-2,-10,30,-61,-31,29,-5,-36,-27,9,20,41,-53,-13,5,-26,-1,-27,-5,-32,-22,-3,13,-8,-36,-13,-30,10,-2,-22,6,-36,9,52,10,-5,28,39,2,43,40,35,-127,-32, -80,-34,106,0,-34,8,58,6,25,-20,-38,-45,20,-1,51,-9,46,52,6,16,9,-13,67,-2,8,69,30,-17,-68,56,-16,12,-31,-32,32,-12,4,-46,-13,-78,-63,-28,9,-26,-36,29,-4,-1,-15,-41,33,-41,5,34,21,40,39,60,8,-18,15,-4,-126,-68, 
  /* [82][0][][] */ 2,-16,3,-14,-3,51,0,-32,3,28,26,34,22,11,-10,0,-11,3,-35,-39,-9,-38,28,27,5,-27,-28,-3,-67,-6,-40,-3,34,0,30,3,-15,-2,5,-28,-47,56,-18,-43,45,-34,-1,2,49,-14,8,-17,11,-60,23,30,7,-21,40,20,21,-2,-14,-18, 41,-59,-20,-100,32,10,-42,-63,0,0,-10,12,-26,15,9,38,-13,-5,-40,-3,-17,11,-2,-2,-53,-20,9,3,-94,6,-36,19,-28,13,47,-64,-27,7,-4,-3,16,41,-26,-51,3,-25,-11,-11,44,3,-1,28,27,-30,32,12,11,-18,-5,19,33,-53,-34,-40, 48,-107,-38,-42,46,-11,-31,-127,18,32,-18,0,-2,-13,-30,15,-12,-28,-18,13,3,-26,2,-24,-47,10,-10,-9,-83,-11,-39,-5,-3,20,20,-87,-33,7,17,-34,-6,23,5,-62,46,-19,17,-7,37,-48,6,34,-2,2,-1,-2,13,-59,4,-2,13,-8,-2,-64, 
  /* [83][0][][] */ 43,30,12,-14,-8,-21,46,10,6,-15,18,-1,21,30,-16,-3,28,-126,-14,-21,-3,52,-54,-86,-50,-12,-47,11,5,13,-95,19,-48,-31,-86,25,-6,-29,-7,12,55,-37,-38,-31,-7,43,54,5,-34,1,47,-23,44,19,-127,7,10,59,-24,-16,13,-37,20,-74, -7,24,-2,-83,-60,5,-19,10,-9,40,4,13,43,-11,-10,-26,-10,-102,2,7,-10,18,-42,-66,-12,17,-124,24,-37,-59,-110,26,-105,-83,1,16,3,-21,49,-41,-16,-4,49,-23,24,7,5,7,-12,36,58,-38,12,58,-55,23,32,56,-75,-52,29,-24,-16,-51, 12,-49,-8,-11,-7,-50,-73,-48,-22,20,30,1,-14,-2,-57,-66,-60,-23,-12,-33,-31,40,-13,15,-55,-62,-47,61,-61,-46,-28,3,-6,-4,-36,-38,11,-70,31,-22,-46,-44,32,-72,-7,2,14,-6,-28,-29,9,-49,54,-45,-5,0,41,-49,-14,2,-13,-42,-10,11, 
  /* [84][0][][] */ 1,17,27,-2,23,16,-78,19,34,42,16,21,20,19,-13,-105,8,4,18,-8,23,11,-91,-68,-56,-1,9,3,-53,-63,14,-97,-14,6,-33,19,-19,-100,4,5,29,-1,31,-24,-1,-13,-36,3,-2,7,-16,2,40,-36,2,31,-13,41,-20,-8,44,29,-26,82, -22,8,7,-32,3,-26,-91,-30,6,7,-2,19,3,-22,-10,-70,-9,-4,-6,-38,-9,-21,-53,11,-28,-37,-19,3,-23,-69,10,-52,-15,-55,-42,-6,-33,-48,3,-45,-14,13,3,-8,-3,-35,-22,9,17,3,11,-21,-8,-59,3,-21,-20,6,-50,-19,36,-16,-8,55, 15,-18,26,-58,27,-4,-121,-26,-1,0,27,16,17,-8,17,-63,8,2,-24,-35,17,32,-85,74,34,-39,-32,3,-126,-56,5,-28,-27,-44,-12,58,-13,-62,4,-34,-12,47,42,12,33,-61,28,1,17,12,-34,-42,40,-127,14,13,-9,31,3,-24,19,20,-35,65, 
  /* [85][0][][] */ 60,-79,-80,-39,-52,53,12,6,18,30,32,-2,17,12,7,5,-3,11,-24,32,-26,8,-12,33,18,-4,-4,45,-29,-35,16,16,-10,77,-8,37,82,5,-32,-40,32,26,39,-54,-38,23,1,-1,-20,-80,13,-19,8,-80,11,-8,27,2,7,1,66,-1,-63,-5, 10,-92,9,-27,-62,9,-2,-39,48,30,19,-28,-22,29,13,-17,-9,5,-10,47,-31,5,-41,26,-16,52,-17,16,-69,-5,0,8,-3,68,-8,-29,19,-10,-50,-97,41,-18,13,-71,-41,-10,6,12,-65,-108,27,-23,-12,-26,16,-25,6,21,-45,-27,29,1,-97,7, -19,-61,-32,-16,-71,63,5,44,20,50,28,-60,-19,-14,8,-24,18,-11,10,26,0,-6,22,40,12,12,-7,13,-93,-29,15,13,-7,48,-32,36,-6,-5,-13,-54,29,20,-27,-32,-30,-12,-16,13,-69,-127,5,-57,11,-79,-12,2,-27,33,-75,-20,11,33,-36,26, 
  /* [86][0][][] */ -39,2,-3,-5,-51,8,38,-10,47,4,21,-97,14,17,6,40,26,-7,-55,-11,-6,19,25,-15,1,-35,14,32,-63,20,5,35,-56,5,0,-12,50,-21,-81,-13,44,-32,5,-17,8,11,42,5,-31,7,6,-2,6,39,-26,32,65,31,24,-82,12,25,-8,2, -86,13,-18,-25,-58,-8,1,-9,29,16,1,-77,2,-2,25,15,20,52,-28,-10,1,6,26,11,-2,-16,12,-6,-95,-31,6,41,-28,-9,-37,-7,0,-22,-13,-34,3,-49,40,-11,43,-1,17,9,-18,-18,41,-8,5,16,-22,19,-12,41,1,-37,2,15,-7,-12, -55,-18,44,-17,-46,8,4,-24,21,5,18,-65,12,5,-16,11,25,30,-34,19,-42,38,31,-9,1,24,11,15,-127,30,-5,31,-29,7,-28,-30,14,-41,-66,-25,21,23,20,-42,34,1,-4,-1,6,23,-5,-11,23,34,30,29,9,25,0,-42,15,-21,-11,-10, 
  /* [87][0][][] */ 85,-23,27,-43,-25,-49,-13,13,-34,22,-25,-57,6,-7,-1,-6,-99,53,24,127,-10,-33,-46,-35,-67,17,-59,66,1,-13,-20,-15,32,-1,7,30,47,7,28,35,19,-23,-10,14,-11,-40,-46,6,5,-7,23,-13,-29,34,-115,-2,16,35,36,38,15,-34,36,-29, 57,-13,17,-34,-33,-1,-28,-55,1,38,-29,-22,-26,23,-29,46,-77,30,-7,67,-40,-27,-45,-31,-18,17,-78,14,-6,-74,-15,65,8,-51,3,51,25,-15,0,16,59,-16,-28,-7,-35,-48,-100,17,-16,-7,-19,-14,0,26,-74,-35,-9,-39,18,42,-28,3,3,15, 18,0,98,-2,-53,2,-4,21,-18,70,2,-30,-8,9,-4,52,-114,48,13,86,-74,-14,-34,-73,-7,27,-62,3,-18,-43,-57,-16,52,-71,-32,73,-1,-42,19,53,-8,25,16,23,-12,-11,-119,0,-32,-25,-1,-9,-31,24,-103,3,-73,-58,39,41,-60,-13,7,30, 
  /* [88][0][][] */ -24,2,14,-22,-9,-29,-7,-5,-10,11,12,12,61,-26,-37,-11,3,16,15,2,-1,24,-12,-29,-23,34,2,9,3,-37,-10,-4,-9,-5,-23,-28,20,-17,9,6,6,57,23,1,3,-12,-23,5,13,16,-67,11,32,-19,7,44,-39,4,43,-52,-13,37,-70,29, 24,-8,10,-8,-12,-51,-34,-49,-19,-12,-31,6,12,-22,-52,-30,-5,-5,-16,-29,-23,14,-33,36,23,35,-12,24,-9,-16,-23,-1,-6,-18,42,19,20,-12,-20,39,30,5,26,-10,17,-24,-61,0,18,-9,-11,7,30,15,-5,21,-30,1,21,-42,-18,-32,3,-5, -62,0,45,6,-25,-12,-47,-12,24,-6,-36,8,-1,-39,-20,-36,-15,21,0,-17,-52,-14,10,26,-8,13,21,6,0,-59,-32,2,-15,18,12,-10,14,-127,-21,0,-20,-7,-1,-3,3,-31,-93,4,-3,-2,-43,2,29,-35,-5,29,-42,-23,-15,-34,20,-5,4,27, 
  /* [89][0][][] */ 45,3,13,-8,14,27,-60,-28,47,20,-25,-52,43,16,-22,13,-6,-10,13,-10,6,-27,18,-2,-15,1,11,41,11,-32,15,-51,11,27,54,-14,-19,45,32,-27,-57,-16,-25,-5,18,-16,-9,23,9,-28,32,-6,-13,-89,35,19,-66,21,81,-11,26,-67,0,-41, 0,17,-14,-15,-6,2,-103,9,22,44,-65,-66,23,-15,-63,22,18,-36,-27,-100,8,21,1,-24,-91,35,-43,-31,26,-13,-7,-47,-2,11,-3,-23,-14,53,20,-18,-31,-8,-2,-84,20,-39,-30,14,-23,-4,-3,-10,8,-114,2,19,-60,32,64,-9,-19,-49,-11,-43, 8,29,-20,4,15,41,-60,-28,23,43,-57,-44,12,20,-127,8,30,-12,-10,-50,-26,2,14,-7,-87,1,-17,6,29,0,-2,-32,22,17,21,-48,33,8,-13,-57,22,3,24,-68,-37,4,-25,6,-101,-6,-5,-38,-11,-84,-32,63,20,54,7,-24,26,-49,7,-3, 
  /* [90][0][][] */ 0,13,-45,23,-26,11,6,-30,27,4,36,23,23,-94,-98,8,-45,41,14,24,-30,1,13,23,-47,-8,-81,-5,26,-1,-19,40,-1,-6,-57,94,-73,-38,-10,-60,-14,38,-61,24,45,30,-89,9,-9,-15,-12,-44,-42,-127,-43,25,15,32,-19,27,-27,-13,4,-3, -110,-11,7,40,-9,-13,12,-2,27,-20,12,-11,-14,-19,-19,76,-118,-3,-27,31,-7,13,-34,39,-1,-17,-71,45,-2,28,-33,-36,54,30,-45,-40,1,-31,-84,6,-73,35,-35,-18,-13,27,-21,-1,-34,-66,5,17,-40,-9,-82,-44,27,11,-37,-1,9,-26,51,71, 25,-6,-18,-60,18,-31,17,73,7,22,0,-31,-8,21,-23,19,-107,-5,-62,17,14,-13,46,56,28,-27,-15,13,-47,6,-66,22,53,22,48,32,-29,-10,4,12,9,41,-6,-49,5,-8,49,4,-56,-64,39,38,-3,5,-38,-13,8,26,10,37,9,-6,3,38, 
  /* [91][0][][] */ -24,10,-40,-21,15,-81,-12,-80,-6,1,33,-22,-79,6,-15,32,47,5,72,-18,40,-45,-54,36,12,-28,43,23,-37,-12,-25,6,27,-26,5,-3,14,3,0,-15,35,1,-7,-1,-77,-3,-20,-10,50,96,-12,38,22,33,-74,11,88,-32,35,-76,-73,-26,33,79, -35,19,-19,-19,25,-55,-46,-13,14,-41,-12,-56,5,26,-42,6,15,32,-32,-16,14,13,-38,-19,-20,-17,25,0,-55,-14,-27,-29,-38,28,24,6,13,9,-31,35,-7,-16,22,-50,-48,5,23,11,24,-31,-3,-11,32,-21,-61,-26,35,28,14,4,-29,-21,-10,16, -31,8,17,-39,-20,-3,15,10,-60,-23,-1,-74,-83,-11,6,-23,-12,-1,-127,4,-25,2,-29,-29,51,-3,6,44,-73,-6,-87,77,-25,20,1,-76,-40,-13,-26,11,21,-97,14,-69,-60,33,-14,-14,-24,-8,-15,-10,-20,46,-5,-41,69,-70,-13,-42,0,-55,-13,27, 
  /* [92][0][][] */ -18,19,-34,-1,49,-122,-71,3,14,-8,-6,-37,17,-66,-62,-9,-57,-35,0,-99,8,43,37,6,36,14,3,8,-9,-10,18,-110,-86,-52,83,-21,63,-93,25,-27,24,96,39,-73,-20,-60,-78,24,55,76,-48,59,44,9,56,-10,-87,26,59,54,20,-47,33,-31, 77,-11,6,-67,66,-79,-73,-15,-2,0,44,-59,-107,-115,-51,4,-29,-26,89,-19,-50,-55,21,-16,7,58,-69,44,-127,20,15,-87,-18,-41,120,67,24,-61,-19,-20,20,31,51,-23,2,-97,-104,13,46,-3,-67,95,-39,0,80,29,0,9,37,13,62,31,-18,-110, -46,5,98,-15,36,-96,5,6,-25,21,17,0,21,-55,-33,-18,15,-97,23,13,5,19,29,-6,36,-5,19,7,-102,-3,21,-88,38,-64,24,-1,22,-100,-76,60,66,62,44,-17,2,-71,-26,4,14,11,-110,98,-39,34,61,31,65,-8,13,-4,25,62,-44,-20, 
  /* [93][0][][] */ 74,-15,-37,-18,-40,12,27,-7,39,57,36,3,38,20,-10,6,-6,-42,-21,56,0,-24,8,17,-26,-49,28,-8,1,-23,30,22,-75,-11,-22,-109,-14,-11,-23,-5,32,-28,30,22,42,18,38,-9,-7,-24,2,2,-53,2,-65,25,17,-4,53,-77,9,6,-17,15, -57,-28,-15,-34,-28,8,-15,-28,29,39,22,-31,-5,31,23,18,23,-25,-27,48,-20,-39,94,46,43,-28,30,9,-30,36,-26,-11,-35,-28,-16,-39,-66,17,-5,-52,37,-32,-29,-3,55,-6,-22,6,-21,-42,35,7,-61,114,21,20,61,22,11,-78,-3,-43,-25,3, -35,16,-63,-1,-1,18,-6,-59,15,-20,-7,-18,-28,10,-32,-29,33,-59,14,51,-3,-54,39,22,40,-2,-18,-5,-48,1,-9,24,-89,10,-64,3,-48,-15,-35,15,7,11,-15,-8,19,19,-10,7,-87,-32,12,-48,-24,3,-62,5,-18,10,-127,-18,-33,-29,-6,35, 
  /* [94][0][][] */ -29,-51,-67,-62,-1,13,5,-23,-46,41,2,5,-65,-37,-85,1,54,58,18,-35,-10,43,52,-13,6,102,-8,11,31,-12,32,-68,7,4,-27,-1,-2,12,30,15,-44,48,52,-9,27,-123,-3,-1,51,29,-13,60,29,17,42,-16,-45,-62,30,32,21,6,46,20, 3,-41,7,-58,-18,5,-29,-47,-58,-29,-15,17,-31,-6,-123,7,21,1,28,-73,1,-40,54,4,23,63,8,4,10,-6,24,-7,12,-62,-15,-3,10,9,3,-82,7,57,0,-57,-12,-86,15,-3,52,48,25,22,31,49,27,6,24,-51,-20,20,31,-6,-15,-42, 10,-46,16,-9,-3,51,4,-60,-37,3,12,44,33,-127,-47,15,19,-1,14,-12,5,-5,57,-26,-30,42,68,4,-14,-14,-15,-10,65,-19,-28,-32,41,4,36,32,-34,0,28,-62,16,-54,-3,4,31,57,1,23,25,-10,51,6,55,-64,-28,21,12,14,11,-43, 
  /* [95][0][][] */ -69,-7,44,-32,-127,17,1,4,79,39,-49,-57,12,27,-75,-8,-14,-62,-80,38,-63,-74,-21,5,-52,-57,-2,-57,-34,-34,-4,16,-10,-27,-65,9,-43,-29,-97,-3,50,-68,-18,-39,-26,-5,-43,-1,-18,-37,14,-2,-78,1,-15,-62,-56,-4,-30,-29,-63,-95,-36,-100, -20,-4,16,20,-13,-31,-47,26,-10,-121,-68,-1,-27,-54,-23,31,-4,4,31,47,-41,-52,-61,-36,30,-43,25,-39,55,-49,-1,25,41,-35,14,-12,-117,11,26,1,41,-47,-19,8,-45,1,-18,-6,18,-91,-55,-6,-29,58,-42,12,55,-14,-110,10,-30,-8,10,66, -43,-7,64,-11,-84,35,5,26,-26,-86,-9,-20,36,3,-61,13,50,20,-33,-1,-13,-23,-23,-39,-6,-5,19,-61,-8,78,24,-37,-52,0,69,-19,-61,25,-21,-39,-11,5,24,-41,68,10,9,0,5,-90,-61,-6,27,67,0,31,14,25,-78,1,-6,-83,2,-2, 
  /* [96][0][][] */ 7,-6,-10,19,-21,-20,-2,-57,-39,4,11,30,-9,0,-33,-90,13,23,-1,-51,13,-20,40,21,4,16,30,-27,1,-26,-6,16,-27,-73,12,7,50,-1,-3,2,-11,62,23,-9,20,10,-126,-10,-29,9,-67,-5,3,19,9,-1,-54,-1,-3,-9,27,5,-11,12, -19,0,-4,-13,-12,-17,-18,-33,-21,-18,-4,14,-17,2,-13,-69,-4,10,18,-22,-23,-53,2,6,12,-16,5,-17,-7,-22,-3,-16,-17,-32,6,-3,25,-4,-38,-10,-17,7,-11,-5,1,-5,-127,-1,-30,1,-66,-28,-9,14,-12,-16,-52,-37,-4,-6,39,17,-7,-20, 27,-5,-27,-6,13,-27,3,-12,19,-36,29,32,-10,-13,-25,-70,-25,41,-16,-40,16,-14,-29,20,36,-6,14,-27,23,-36,38,39,16,-40,-17,37,25,-9,-10,21,5,8,-8,7,17,-1,-73,-9,-1,20,-49,-35,-16,51,15,-14,-35,-38,49,13,22,-5,5,-10, 
  /* [97][0][][] */ 3,-62,-56,-25,31,2,-2,-34,11,11,-54,9,82,2,15,-28,-30,-3,-32,19,8,-8,27,7,6,18,-29,-1,-42,-26,-18,25,30,29,45,-9,8,-33,0,6,-29,4,26,-5,39,28,-9,1,35,-37,8,21,2,-30,-12,-17,-1,9,-7,13,16,-16,15,-19, -21,-127,-17,-20,-5,18,13,-69,-19,25,-22,6,26,-4,10,-11,-37,-6,-20,-11,-6,-9,23,7,-3,0,-3,-2,-39,9,-35,-23,9,-11,15,-13,1,1,-4,-52,-14,-26,16,-20,-14,5,-6,-10,25,4,-4,33,-2,-41,-9,19,10,-22,-3,14,54,24,-17,-59, -27,-83,5,-5,6,18,24,-38,-4,43,-31,22,19,-14,24,-2,-25,-2,1,31,2,-29,38,2,-27,37,7,3,-18,-6,-35,19,41,-31,7,-9,19,12,9,-33,-43,-21,60,5,28,15,9,-8,28,21,-11,7,39,-70,23,-25,16,14,-6,28,61,32,-2,-90, 
  /* [98][0][][] */ -27,10,23,31,2,6,-11,23,49,18,6,62,-11,-50,41,41,14,-23,18,15,-30,52,-45,-93,32,5,4,34,-34,-19,-10,127,-10,-78,-58,25,47,-19,-110,-12,34,23,-15,32,-61,12,15,5,2,-3,15,21,-6,5,-29,33,90,24,66,-126,35,-34,-54,-18, -49,-35,12,-30,19,-57,-5,7,-30,-13,4,30,14,-53,-16,9,15,-23,18,7,-3,24,-33,-77,-24,13,-4,2,-30,14,-76,54,1,-96,-30,18,51,-56,-86,-43,22,35,14,-21,-29,0,63,-11,-11,-33,6,39,24,8,-43,23,30,-4,34,-83,1,69,-38,-89, -60,-18,10,-27,35,-13,46,53,-21,13,12,44,24,-72,-53,26,19,-3,6,68,20,-13,59,41,65,15,12,-10,-32,10,-59,48,-27,-68,-119,47,58,-23,-51,-76,-14,-22,10,-12,-3,18,61,-5,37,-10,-17,34,25,-1,40,83,11,57,65,-68,-19,60,-36,-27, 
  /* [99][0][][] */ 8,15,56,-32,-72,-13,-22,31,-12,-26,-43,-43,-54,-27,20,-12,-10,-17,-58,-6,-1,-17,17,30,-10,6,25,0,-30,-24,-36,29,7,-12,10,-79,28,-2,-7,5,-12,35,-14,-70,-66,-30,-4,-14,52,33,-35,-9,11,24,-20,-18,61,-47,27,-4,-23,4,-79,93, 11,2,-47,-8,-111,-33,-16,55,-70,-16,-111,5,-51,-48,-6,-3,-7,-31,-2,-37,-2,-32,-10,18,39,-4,-1,-2,-32,-2,-106,31,-10,-13,27,-2,-18,42,32,8,0,-8,-38,-66,-103,-80,-13,-3,-24,3,-15,4,14,45,-18,-9,28,-67,-17,-37,-51,5,-71,65, -2,-22,18,14,-127,-12,-2,13,-74,9,-85,7,-18,-19,5,12,-14,-13,-42,-43,18,-70,-18,-4,-20,18,-2,-40,-17,1,-71,29,20,14,-24,30,29,18,-8,-5,24,-58,-25,-99,-39,-1,-18,-4,-14,-4,0,-7,26,23,-18,-47,-36,-37,-4,-13,19,-23,-22,60, 
  /* [100][0][][] */ 18,5,-91,-14,20,12,-10,-74,-3,-32,-6,-68,-94,16,50,-14,-2,-16,-93,-27,4,-80,34,-11,-23,-1,2,58,-10,-33,28,59,4,-9,22,-41,7,-4,-7,5,-15,15,-88,32,9,-11,-3,-6,-27,-43,-8,-87,-40,-25,57,-16,24,-54,24,-51,-8,-63,24,9, 33,30,-55,-20,-2,4,-25,-5,0,-37,10,-30,-81,-5,-26,-18,31,-50,-30,22,-2,-21,-2,-56,0,39,-57,58,12,-34,-4,8,11,6,-21,-58,36,11,-16,9,-56,44,-76,44,43,0,9,-2,-20,-20,24,-127,-31,-39,18,27,16,20,-31,-33,-53,-22,60,8, 22,27,50,4,-22,-23,-25,63,-37,-65,14,6,-87,-53,-53,-48,14,4,-48,-13,20,34,-18,13,35,50,-62,6,17,11,2,53,-15,-80,-98,6,63,35,-1,-79,-40,66,-86,28,19,-23,-9,14,56,39,-58,-110,18,18,57,23,1,50,47,-57,-32,42,-14,8, 
  /* [101][0][][] */ 43,-5,-82,-13,-49,-28,-78,36,4,-4,-59,32,-77,-34,24,-31,38,63,-52,27,-15,34,89,-3,36,35,-21,30,-10,-25,57,62,13,-69,-3,58,7,3,68,-127,38,6,1,-32,31,3,-55,5,90,123,-43,-14,27,-11,-7,19,11,-46,20,-54,-52,26,-70,33, 21,-26,32,-61,-45,18,-31,-26,-20,1,-91,-6,6,-20,-72,9,34,-8,-51,-34,-29,-34,12,103,-43,82,8,19,-2,-44,28,-12,12,-28,-7,-45,-69,-35,-15,-11,26,-33,-2,-41,25,-60,43,1,51,20,-25,-39,38,55,-7,1,53,-53,-48,-71,-67,-14,-100,-29, 46,-17,49,-127,-20,-36,-57,-18,66,79,-20,36,-74,-68,-108,3,13,32,-63,-11,51,-27,27,31,-6,84,-42,-18,-11,-30,24,13,-24,-67,-80,-33,-62,25,41,27,25,45,35,17,58,-79,15,6,85,72,-25,-49,2,7,20,62,101,2,-63,-54,-55,-118,-123,37, 
  /* [102][0][][] */ 29,-86,-55,-28,-63,-16,17,29,20,-34,-50,-34,-56,3,-26,-25,-32,-51,21,-29,-6,-15,-47,-127,-52,-15,-8,1,-62,-83,5,38,-2,1,21,-14,-79,26,19,18,-33,63,-44,-19,-30,-56,0,13,-41,21,-2,8,-7,-22,-3,41,-34,-85,32,-37,-27,-45,-70,7, -13,12,10,-8,18,4,14,25,-12,17,15,24,44,-14,-12,-41,-12,-2,22,-21,-28,19,-62,-119,-48,1,-36,14,-102,19,-2,18,-41,-11,-52,-8,-79,-71,2,32,-22,9,24,-23,-41,9,4,6,-42,15,-6,-6,46,-38,65,-5,30,44,-63,-1,33,30,-30,26, 22,2,-41,-24,25,-34,-10,-3,-26,30,-3,7,35,27,-9,-24,-23,-34,-13,-9,-2,-29,12,-106,3,-13,-2,18,-39,26,-3,-4,7,37,-39,25,-22,-50,7,-3,10,-13,32,-51,-33,6,-21,-1,1,1,-11,25,25,-35,20,-34,-22,4,-13,11,3,-22,28,48, 
  /* [103][0][][] */ -41,34,12,14,30,-1,-33,-28,25,15,-55,62,26,30,-28,13,-25,11,-27,-98,-89,6,8,27,-106,-2,-28,60,1,-56,7,-121,11,0,-17,-29,12,-23,-72,24,-87,42,15,13,40,-3,-43,10,-36,41,40,-34,16,-10,-69,-48,-127,15,35,10,-29,-42,14,4, -47,8,-43,-26,12,-8,-39,-77,42,4,-66,14,2,-19,-13,5,-7,-23,-13,-76,-60,25,-11,-8,-7,0,-13,14,0,1,-8,-46,7,-1,-37,-9,-4,16,-89,16,-61,30,13,16,0,-4,-81,-8,-49,31,-1,-18,-30,34,-29,-44,-118,-14,12,0,-65,-63,-5,-14, 21,31,-41,-26,31,4,-48,-49,19,-5,4,17,-17,26,-34,-30,-5,-9,26,-91,-85,12,36,9,-2,-7,-17,-23,16,-19,22,-36,-18,43,7,-19,13,-44,-95,10,-25,47,36,25,2,-32,-46,7,35,39,26,-54,-54,46,-32,-26,7,9,24,-2,-21,21,-19,51, 
  /* [104][0][][] */ 24,-30,-16,-33,5,-49,-52,-16,-46,47,-17,-3,10,-46,-73,33,-9,-26,-33,-12,-2,10,-27,-58,30,-2,6,-64,-50,8,7,-32,-14,-7,-19,2,-28,25,12,-23,27,17,4,-19,-5,-66,-60,5,10,-20,17,60,-20,12,70,29,-86,11,42,44,21,-38,-26,2, -3,-11,19,-16,2,-37,-47,-47,-19,2,-42,-33,44,-76,-54,9,1,14,-31,-37,-3,47,-16,-71,-5,22,8,-59,9,-34,18,-52,-5,-46,-8,16,-29,4,16,-72,-6,24,42,-59,6,-28,-48,0,2,-9,-38,15,-10,-27,5,-15,-30,4,17,48,18,-23,-18,5, 17,20,-8,14,13,-23,17,11,5,-19,-61,-19,-18,-56,5,-24,32,-1,7,35,29,-11,3,3,-3,65,-46,34,16,-17,24,35,-13,-127,26,41,-94,8,20,0,57,-26,18,12,31,9,3,-4,10,-17,-31,-23,-55,-13,-12,-4,26,21,21,12,12,60,0,26, 
  /* [105][0][][] */ -4,-23,-8,-8,-68,13,0,3,-3,43,-60,-7,24,-9,-86,5,58,116,-23,-69,63,19,84,9,-10,90,33,-116,-1,-17,33,-54,55,22,-1,33,20,7,33,-39,3,17,15,-49,65,-36,2,-7,15,16,-25,-40,49,51,31,49,-28,36,65,20,-39,35,-5,-40, -25,-13,40,-8,-33,11,-16,-25,16,-22,-55,-29,20,0,-10,21,-2,36,-50,-40,4,30,38,-35,-40,23,56,-127,-1,1,-36,-45,-7,-65,-6,-1,-6,-11,-25,-29,-26,-22,-20,-39,44,-26,-90,-2,-45,19,7,-31,58,23,31,47,-29,19,11,21,-70,4,-14,15, -5,-21,6,20,-2,-15,-22,-16,62,-23,-1,-15,-17,1,-23,11,-34,111,-59,-85,56,35,10,38,-12,1,71,-108,10,-64,15,54,44,-5,-53,26,30,-15,16,-5,34,16,-15,-14,49,-19,-9,-2,-5,18,-22,-43,24,19,19,46,10,11,71,18,-33,-3,-20,12, 
  /* [106][0][][] */ -46,5,22,21,-28,8,6,37,18,-27,-5,-1,-35,-24,-69,3,42,-15,21,10,9,45,-18,39,51,-22,18,18,-1,-11,-33,23,-62,-1,-29,-19,77,-26,-45,-21,-18,-127,24,22,-87,-3,25,0,-6,68,-33,-11,42,115,-14,30,87,16,-59,-66,5,24,-27,-87, 19,-21,-47,-25,-4,25,15,-45,-42,-10,1,17,-34,-10,16,-13,23,8,-11,33,-20,16,-1,-23,23,-4,-10,37,-30,-71,-70,-7,26,35,-51,-25,21,-82,-55,3,58,-109,9,-25,-104,11,25,-1,-24,63,42,0,32,98,9,12,31,-25,15,-8,52,16,-11,-109, 29,-33,52,-3,-35,2,42,24,-73,-32,26,-2,21,-31,-39,-31,-21,-8,-23,66,-35,1,-42,11,53,46,-90,20,-1,70,-37,15,-23,13,-78,27,34,-16,-3,-24,-22,-50,-18,19,96,18,0,-6,12,106,-10,-54,40,24,-17,85,44,69,23,-1,44,27,44,2, 
  /* [107][0][][] */ -35,1,-54,-10,33,7,19,-30,5,29,26,-2,38,-27,-6,21,14,16,36,43,-31,-12,-10,56,-35,15,-7,32,2,57,-36,5,16,5,-67,7,6,-93,-8,41,90,-7,-7,41,8,11,-106,3,15,-25,9,2,-38,11,5,3,-24,13,-46,16,12,-23,23,20, 26,10,11,-27,9,0,-9,16,-29,50,-21,35,27,7,-46,-12,-7,-11,-7,4,-88,-7,-31,62,-18,-38,-12,0,-12,48,-21,-15,-27,-3,8,-23,-30,-109,-7,-41,29,55,12,-29,1,-11,-127,-9,107,21,56,-29,-93,-24,-31,7,20,10,-8,25,-17,-31,4,-66, 32,-30,35,8,-51,-21,-24,-82,5,49,0,25,-41,0,-3,55,-79,-16,16,73,-14,15,-26,67,-20,0,-92,30,-28,51,-46,9,11,-8,-18,-29,-18,-17,61,18,-15,0,-24,-27,17,-1,-22,0,48,-19,8,29,-8,19,-49,-30,80,5,-4,-22,-10,-7,-13,-3, 
  /* [108][0][][] */ -77,-7,-27,5,4,-15,-18,-9,-22,-49,9,-19,2,-52,26,-8,6,-70,8,-10,-23,9,-5,-6,13,-52,-7,0,27,-53,-27,32,-43,-62,-82,10,-49,31,34,33,-32,-41,-68,14,-26,1,9,-2,34,-40,-47,-18,-127,-11,40,30,11,56,-58,19,-47,-34,9,-11, -38,-1,34,2,-30,-20,2,13,-7,-36,-14,-25,-11,-16,37,-77,-4,-59,38,32,-24,38,-96,18,-11,-37,-42,-1,37,-20,-41,29,-19,-65,-118,21,-38,15,17,18,-51,-21,-72,12,-17,-8,-46,4,40,-51,-62,-20,-82,-36,37,-10,-14,51,-22,-1,-53,1,25,8, -67,-1,33,37,-26,-14,-12,27,19,-30,-9,-3,-25,0,31,-70,-12,-60,24,34,-36,31,-85,-10,-27,7,-71,7,14,51,16,55,20,-5,-79,-10,-11,-23,20,34,-15,29,-17,0,21,-14,2,-5,7,-45,-6,-24,-73,-17,-16,-11,-39,19,-93,-9,-33,7,21,-2, 
  /* [109][0][][] */ -11,2,2,1,-17,-16,-43,-63,4,9,-67,10,-7,15,-21,-56,-6,-1,-32,-43,-12,-30,-1,33,-16,-2,-3,-2,4,-44,-4,-24,14,-30,39,31,39,46,-19,-6,-49,37,20,3,45,-29,-11,-11,6,-12,24,-18,12,-28,-79,-1,-79,-29,27,30,-11,-50,37,22, 10,20,-11,-2,6,-6,-35,-19,55,17,-5,5,5,-6,-32,-28,4,-12,-29,-59,-37,20,-30,24,-15,59,-25,-11,4,-47,-1,-52,-6,-13,2,16,-5,34,-48,-13,-101,18,5,1,-26,-13,-107,0,-10,10,3,-28,-5,-17,-80,-29,-127,22,-14,-1,-13,-12,5,0, -3,32,-59,-22,1,16,-57,16,31,13,-7,0,-6,32,0,-47,20,-37,-4,-85,-75,42,-26,-85,27,9,-9,-3,19,-44,19,-47,-18,43,-2,-6,33,14,-64,16,-10,36,11,18,-4,-34,-51,8,5,12,0,-66,-24,11,-50,-3,-26,-21,-16,6,-17,-6,10,-2, 
  /* [110][0][][] */ -24,-25,7,-37,-1,-47,2,8,-26,-29,4,-52,-8,-29,6,27,-18,-47,21,-20,4,-48,-5,-97,-49,-62,4,17,-127,-21,15,1,14,13,-11,-1,-74,19,22,36,-1,28,-21,-4,-11,6,-51,3,3,-11,-28,11,-26,-10,-8,-41,-61,-30,-7,26,6,-66,14,15, 13,-9,-9,-11,17,-13,10,-3,-36,36,18,10,28,-26,-23,4,6,-19,19,33,-11,2,-42,-82,-21,-13,5,13,-35,-39,-20,-9,15,7,-2,-4,0,-22,-3,7,8,4,6,-24,4,11,-6,7,-6,34,-30,6,29,-29,0,-5,-10,-12,27,-39,-13,36,-6,-1, -18,-6,1,-1,-2,5,17,-39,-2,7,-29,14,8,-13,16,-34,7,4,9,20,-51,23,12,2,-48,8,0,-4,-22,-48,12,-28,10,36,-49,4,18,-81,-24,8,12,-12,10,4,14,-5,-17,0,10,-20,-1,43,42,-25,9,6,3,16,0,-14,-24,10,-5,12, 
  /* [111][0][][] */ -126,8,79,-47,21,-13,-1,25,28,-42,-20,2,-94,1,-3,74,14,-64,38,66,11,3,-42,-116,19,17,6,18,-24,21,0,127,14,-22,-28,35,21,-18,-59,19,40,-22,-31,82,-16,7,38,-1,-29,-23,50,-55,-33,87,0,-18,60,-41,-17,-20,0,-36,-7,-61, -115,-6,30,-40,36,-37,11,-2,19,-49,21,-4,-59,-48,-15,32,10,14,41,-27,11,-14,-41,-54,-9,-24,-9,11,-42,45,10,52,13,-55,5,22,-53,4,-3,-14,10,-22,0,12,-23,14,34,10,-43,-79,18,-51,-18,35,30,9,11,-17,1,-58,-17,-50,-37,-106, -73,26,-57,20,14,-7,29,21,23,4,32,22,-38,-72,5,2,25,-5,39,39,3,-13,31,28,53,-28,47,12,-32,54,24,0,-22,-49,-69,-11,59,-52,-22,30,4,-40,15,35,-21,45,2,11,34,5,-72,-50,31,46,35,8,-9,23,-34,-72,-58,-10,-51,-104, 
  /* [112][0][][] */ 28,-40,10,18,-54,-4,-64,-51,-30,-7,-34,-24,1,5,-98,31,26,-31,3,-82,8,-28,40,9,-58,29,23,-54,14,-8,10,-127,9,7,12,-1,10,43,3,-3,-24,9,7,27,26,-34,25,-8,-21,-47,0,-1,49,-84,22,-16,-87,3,17,11,19,-16,24,-43, 18,-33,-15,-6,-5,-21,-56,12,-40,11,-12,-57,-39,-14,-85,32,51,-22,-39,-58,30,26,-23,-13,-81,40,-11,9,5,39,3,-72,-29,-30,11,-32,-1,44,3,-8,-67,-9,12,-92,-16,-50,4,-5,40,-23,-19,7,35,-94,31,-32,-77,-12,6,3,16,-37,19,-46, -12,10,-45,6,-36,18,-29,-56,-36,-5,-52,-4,-15,8,-78,23,48,-21,-7,-43,-5,21,52,31,-53,5,-36,13,23,32,-12,-8,-7,-8,-1,-7,8,-31,-23,19,4,32,1,-42,-23,-30,-20,5,-43,-16,-13,-46,42,-54,-21,13,41,14,-7,21,22,13,17,-21, 
  /* [113][0][][] */ 26,-31,-35,4,-42,32,19,-16,29,7,-17,-19,39,32,15,20,30,23,-8,-40,-25,-8,-34,73,-11,-16,40,19,5,-6,-9,-29,-39,-20,-25,-30,-27,5,24,20,-10,32,20,7,34,-5,2,13,20,-26,6,8,-41,-127,13,-16,22,15,-15,-4,37,5,-3,-88, -3,-22,43,-44,-23,14,7,6,15,-3,-35,-30,7,56,-16,-3,-19,27,30,-38,-23,21,-31,53,-45,-2,9,14,9,-20,32,-35,-8,-20,-15,-64,-23,8,15,25,33,-5,-1,25,-45,-19,6,9,-4,-19,15,36,21,-65,26,-16,42,14,-34,17,-32,-22,-25,-80, -45,-57,-47,-69,-68,9,-21,35,22,40,-32,-4,6,-18,47,-2,-14,23,8,-31,-8,-19,-68,-23,-45,30,20,-23,-20,-19,9,-4,25,54,-33,9,-12,-5,2,-16,31,-13,-15,23,13,-15,23,0,43,-57,-9,11,-16,-5,-18,2,5,-6,-35,21,19,-38,-45,-23, 
  /* [114][0][][] */ -3,-35,-33,-13,4,25,26,-48,35,13,41,-24,-25,15,19,-17,34,8,-18,-21,-14,3,18,13,-5,-47,10,43,-72,6,3,57,-8,22,-12,10,41,-82,15,-80,42,-49,1,-46,25,27,-26,-12,66,3,10,-15,-78,1,1,-41,-11,-13,6,-45,50,25,-61,-62, 43,-61,-33,-54,-29,17,12,-87,33,4,-14,0,-43,26,-9,-19,22,25,-47,4,-15,-37,13,-42,-54,23,-22,-2,-50,-31,-5,22,-27,24,-15,56,6,-70,5,-51,40,-32,-29,-30,9,0,-26,-6,46,-11,-9,-32,-45,8,-13,-57,-7,-21,-43,6,4,-31,-16,0, 36,-65,-76,-41,-29,42,3,-12,10,35,15,-3,-65,25,11,-25,14,6,-60,38,-9,-17,30,-26,-35,40,1,-52,-81,6,-9,56,1,10,-25,35,13,-72,15,-126,61,-62,56,-37,6,10,-28,-1,28,-20,37,-52,-55,-14,-6,-11,-28,-7,-30,4,15,1,-17,-127, 
  /* [115][0][][] */ 39,-41,16,-36,0,3,-15,0,-43,53,-10,-67,15,-3,26,-10,-18,-12,-5,23,-9,20,23,-14,-3,29,-7,-12,-94,10,-32,-56,12,32,36,-5,19,-11,-15,-21,-18,-20,39,24,-52,-34,7,4,33,-72,28,-7,32,-67,27,55,5,-22,19,14,35,12,-24,-79, 18,-74,15,-53,-3,-17,-22,-45,11,29,2,-34,6,-18,3,7,-38,0,15,-6,-19,-59,1,11,-98,49,-30,-2,-109,-27,-71,-13,-67,17,-15,12,-14,15,-19,-14,-18,-23,8,1,-8,-37,6,3,8,-41,16,2,36,-20,12,19,-49,-17,12,35,38,1,-25,-78, 15,-80,-29,-52,34,-9,-34,-11,-11,61,8,22,16,-10,8,22,-15,-72,37,-8,15,-68,18,16,-127,81,-7,0,-62,17,-110,-10,-11,8,37,-10,33,47,5,-3,-7,13,26,-24,53,-56,7,1,2,-7,10,23,54,-17,25,-16,-57,5,-1,38,35,21,-11,-89, 
  /* [116][0][][] */ -4,4,-3,1,0,-16,7,-5,9,20,-3,21,18,-41,9,6,-44,18,0,11,-24,-73,-25,17,-24,14,17,30,6,14,5,-7,12,-2,1,16,-11,-34,-16,0,7,19,-64,3,-12,17,9,0,12,6,0,7,3,25,22,19,22,-11,-5,25,13,8,-1,-127, 26,-20,-5,-12,1,-45,-18,-16,4,41,2,9,22,-52,-4,12,-32,10,-1,-3,-19,-37,-2,10,-80,0,-25,16,-17,-29,-37,-11,-3,12,8,23,0,-13,-33,15,16,4,-20,-28,-2,-1,19,1,-23,1,4,9,-4,8,-11,16,31,1,11,5,-20,4,-4,-105, -8,2,-25,11,-6,-27,-7,-3,3,14,-12,26,11,-61,16,-2,-53,-20,38,25,-12,8,-12,5,-85,-4,-43,27,10,-20,-35,1,-22,9,19,28,8,3,-21,37,-16,7,-53,25,11,4,11,7,-7,9,-13,4,-2,15,-20,12,27,10,-37,8,-22,11,20,-96, 
  /* [117][0][][] */ 0,-1,-26,2,-27,9,2,-14,30,14,-38,6,43,-39,-47,56,-30,0,-41,-8,-44,-10,34,-18,-4,-89,-71,-14,21,55,-72,30,-63,-8,31,88,-69,-48,-29,-28,-42,29,-71,-4,22,34,-5,8,55,-48,20,5,-25,66,-55,42,65,25,-10,5,-52,-7,5,-37, 21,-21,-107,7,2,-44,13,52,-8,-48,0,-26,31,-82,-28,68,-15,-10,6,26,-82,12,-24,19,18,-22,-32,22,26,-2,-61,-12,17,-42,60,75,-47,-18,-38,-4,-22,-6,-47,-21,-17,25,59,-2,4,-107,-24,18,-27,20,-124,7,10,3,16,3,-127,-38,0,40, -66,-18,-63,51,24,-14,1,-80,2,-14,4,39,49,-93,0,44,-30,33,13,-34,-94,-14,11,-12,-34,-50,-64,-17,20,1,-41,-13,-3,-34,-49,73,-14,-26,53,15,-87,50,-67,8,16,-3,-34,12,-10,-41,-25,-19,-30,24,-79,8,17,-5,-72,-17,-31,-9,3,-54, 
  /* [118][0][][] */ -88,-1,0,19,13,-3,16,-112,34,12,-17,22,49,13,-62,-8,-10,56,-38,-81,19,-71,-7,-30,-1,-2,32,-31,-16,-10,13,-77,21,-13,-102,-29,-62,71,-36,-14,-46,35,-29,11,-50,9,-66,5,-58,10,-75,10,-15,5,-13,-14,-86,-41,-48,26,-77,-36,-58,3, 41,-5,18,-35,42,-5,1,-29,1,-15,24,25,26,12,-46,-57,-1,85,-21,-40,45,-21,-34,-60,30,28,-3,-34,17,-38,27,21,16,-102,-32,-17,-67,1,29,-48,11,0,30,9,-47,22,-78,-7,10,26,-81,-6,-55,70,35,-9,-41,-5,-20,38,-46,13,-62,-17, -19,-9,-37,37,-20,-7,8,42,-15,-45,13,70,-6,-30,-52,-50,-25,19,-39,-16,6,-66,-59,97,21,-57,-29,-127,-18,-32,17,31,-39,-40,-40,64,21,-15,15,46,-41,20,-13,20,33,-6,-101,-7,13,53,-72,-52,-83,23,-10,-24,-30,-71,28,3,18,33,-1,23, 
  /* [119][0][][] */ 6,-22,25,-16,-44,9,-6,21,10,-3,4,27,-7,-20,-5,78,18,14,17,0,-31,-29,46,-30,-36,28,9,32,-23,1,18,8,-16,-16,-15,-17,18,-27,-116,-16,55,7,-33,31,14,-18,24,6,11,2,15,-20,-4,3,23,1,79,-7,60,-38,-27,27,20,6, -42,-1,-21,-21,-17,-26,-32,9,-20,-19,7,48,-53,-37,-8,42,16,37,34,-6,-76,-14,3,-15,-17,-2,10,20,-17,30,-5,-1,-56,-43,-60,18,-2,-52,-98,-48,9,29,-35,17,56,-16,39,-1,8,26,30,-8,-28,-3,-3,22,24,-30,38,-25,5,-8,9,-43, -55,-12,26,-4,29,-16,29,2,13,5,51,73,18,-19,-29,69,18,14,32,29,-52,-5,59,10,-19,32,4,61,-9,46,-21,0,-10,-36,-41,-41,30,-13,-127,-54,-23,28,10,-20,66,2,13,-12,11,47,45,19,44,9,41,49,34,53,49,-32,-8,-3,3,20, 
  /* [120][0][][] */ -6,4,-14,4,-7,28,19,1,16,40,21,20,-4,-61,4,4,12,7,-36,9,-28,5,56,72,-4,-1,-3,-38,20,19,4,-12,5,-45,0,-8,-95,5,-5,-25,67,-32,-58,10,-4,4,-35,-2,-21,30,-66,-55,-39,32,15,-32,5,-9,27,11,-4,13,3,56, -2,2,17,-9,-25,3,-8,-25,20,-14,-8,3,0,7,15,-28,-18,15,-2,26,-34,-50,10,20,30,-7,-25,-9,3,11,-21,6,-25,18,-73,17,-118,-10,-21,-5,47,-33,-75,4,-39,-12,-25,-1,-53,3,1,-81,-101,20,2,-35,5,1,-17,2,-46,16,6,25, -44,1,8,-5,11,6,18,-3,-2,-4,-32,25,-26,17,-37,-19,5,-14,-15,9,-37,-15,36,-6,-10,4,11,-50,5,-15,1,-43,-15,-3,-8,-30,-127,-22,-57,44,17,-24,-53,8,-2,-6,-8,5,16,34,23,-63,-106,3,-14,-22,-13,4,7,-11,-16,-9,-5,-42, 
  /* [121][0][][] */ -9,-6,13,60,-21,4,-10,-59,-11,3,16,-58,-7,40,83,-69,36,31,-3,-21,12,-34,35,67,-27,4,4,44,-6,-37,3,-10,-37,30,49,9,-51,-104,-28,-11,-26,12,-25,27,-25,-18,2,-3,6,-18,2,-18,-10,0,8,52,-89,-9,30,-105,-32,-51,-3,22, -26,-25,-39,17,1,-12,-16,4,-13,-15,32,-9,-16,28,40,-78,41,18,3,-44,-12,11,2,-23,-23,30,-3,6,-21,-53,-21,-66,-57,41,27,17,-42,-77,5,3,-42,7,8,-21,-63,-19,-8,15,12,19,16,19,1,32,-6,38,-90,-9,3,-127,-72,-21,-7,-50, -4,-27,-57,61,6,-7,-15,57,1,-28,18,-11,-12,8,36,-93,26,8,-27,-24,20,16,-11,-67,12,-16,-6,-22,11,-5,38,-37,27,15,0,43,3,-54,-8,37,-15,10,-6,32,33,-14,-25,8,43,15,-40,-24,20,-1,18,47,-16,-11,18,-82,-11,14,31,-31, 
  /* [122][0][][] */ -35,-12,-8,52,33,-43,0,-60,25,-37,-5,-127,-52,14,44,-4,21,-4,-35,-25,11,-78,-40,99,-12,-18,51,41,-45,14,15,13,-47,-6,8,-7,9,-30,-93,17,-24,-20,-78,-27,-44,34,-7,0,-5,-2,24,-22,-31,31,23,23,53,2,-35,-10,-37,-42,22,27, 18,10,-34,-23,30,-22,-78,-40,-9,-44,-37,-118,14,-9,1,10,43,7,-72,-100,22,25,-45,56,42,4,-7,32,-41,-19,-8,46,-41,-12,41,-54,-4,-2,-22,8,-10,-28,-44,-88,-36,-40,21,10,-67,-30,5,-52,-1,1,-35,-29,17,31,-104,19,-51,-108,24,16, -54,12,35,-18,-8,-36,-40,30,-54,-40,-50,-112,-54,9,50,-6,-33,-24,-109,-51,-32,-88,-19,-11,19,-65,-112,40,-68,-24,-82,36,-55,44,-3,-45,-20,-12,-43,15,-117,-55,-71,-59,-74,0,37,-3,-87,-108,3,-57,-1,20,-49,54,38,-74,-18,7,-25,-96,9,83, 
  /* [123][0][][] */ -57,-47,8,-22,-54,2,-24,4,-63,13,19,49,-41,-8,30,-32,-73,-52,35,-67,-54,14,-22,22,-35,-36,-78,-35,-65,-52,-22,-22,-77,-17,-28,-30,-31,13,-39,34,49,-28,39,-70,-55,7,30,4,36,-55,29,25,27,-21,-5,-79,-47,31,1,-44,29,15,-36,46, -59,-11,48,-36,-89,23,-17,-81,-10,-70,-29,-65,20,5,-37,-127,-25,-18,-14,-60,35,46,28,21,-73,-57,-42,-75,-29,10,-26,-32,-43,-81,-48,-70,-23,-62,-44,-8,9,-57,88,-44,-53,10,-98,28,-43,-64,-57,17,-68,-8,-24,-34,-54,2,-90,-66,-44,-58,-3,-62, -14,-45,111,28,0,4,-55,24,-38,-63,55,-86,-39,-66,-7,-15,22,51,54,64,-27,-77,-38,60,16,-25,-7,-12,-61,-59,-50,-8,-38,28,13,27,-42,17,7,-63,-46,-56,-77,-39,-10,-1,-94,2,-63,10,-71,-115,-52,-46,-31,-28,-16,-51,-61,-16,3,-76,-21,-61, 
